digraph Tree {
node [shape=box, fontname="helvetica"] ;
edge [fontname="helvetica"] ;
0 [label="No_of_children_born <= 1.5\ngini = 0.491\nsamples = 973\nvalue = [423, 550]\nclass = Yes"] ;
1 [label="Wife_age <= 33.5\ngini = 0.47\nsamples = 259\nvalue = [161, 98]\nclass = No"] ;
0 -> 1 [labeldistance=2.5, labelangle=45, headlabel="True"] ;
2 [label="No_of_children_born <= 0.5\ngini = 0.491\nsamples = 215\nvalue = [122, 93]\nclass = No"] ;
1 -> 2 ;
3 [label="Wife_age <= 30.5\ngini = 0.337\nsamples = 70\nvalue = [55, 15]\nclass = No"] ;
2 -> 3 ;
4 [label="Husband_education <= 0.5\ngini = 0.255\nsamples = 60\nvalue = [51, 9]\nclass = No"] ;
3 -> 4 ;
5 [label="Wife_age <= 28.0\ngini = 0.494\nsamples = 9\nvalue = [5, 4]\nclass = No"] ;
4 -> 5 ;
6 [label="Wife_age <= 22.5\ngini = 0.444\nsamples = 6\nvalue = [2, 4]\nclass = Yes"] ;
5 -> 6 ;
7 [label="Husband_Occupation <= 1.5\ngini = 0.444\nsamples = 3\nvalue = [2, 1]\nclass = No"] ;
6 -> 7 ;
8 [label="gini = 0.0\nsamples = 2\nvalue = [2, 0]\nclass = No"] ;
7 -> 8 ;
9 [label="gini = 0.0\nsamples = 1\nvalue = [0, 1]\nclass = Yes"] ;
7 -> 9 ;
10 [label="gini = 0.0\nsamples = 3\nvalue = [0, 3]\nclass = Yes"] ;
6 -> 10 ;
11 [label="gini = 0.0\nsamples = 3\nvalue = [3, 0]\nclass = No"] ;
5 -> 11 ;
12 [label="Wife_Working <= 0.5\ngini = 0.177\nsamples = 51\nvalue = [46, 5]\nclass = No"] ;
4 -> 12 ;
13 [label="Media_exposure <= 0.5\ngini = 0.278\nsamples = 30\nvalue = [25, 5]\nclass = No"] ;
12 -> 13 ;
14 [label="Wife_age <= 28.5\ngini = 0.238\nsamples = 29\nvalue = [25, 4]\nclass = No"] ;
13 -> 14 ;
15 [label="Husband_Occupation <= 1.5\ngini = 0.191\nsamples = 28\nvalue = [25, 3]\nclass = No"] ;
14 -> 15 ;
16 [label="Wife_age <= 26.0\ngini = 0.291\nsamples = 17\nvalue = [14, 3]\nclass = No"] ;
15 -> 16 ;
17 [label="Wife_age <= 21.5\ngini = 0.231\nsamples = 15\nvalue = [13, 2]\nclass = No"] ;
16 -> 17 ;
18 [label="Wife_education <= 1.5\ngini = 0.444\nsamples = 3\nvalue = [2, 1]\nclass = No"] ;
17 -> 18 ;
19 [label="gini = 0.0\nsamples = 2\nvalue = [2, 0]\nclass = No"] ;
18 -> 19 ;
20 [label="gini = 0.0\nsamples = 1\nvalue = [0, 1]\nclass = Yes"] ;
18 -> 20 ;
21 [label="Standard_of_living_index <= 0.5\ngini = 0.153\nsamples = 12\nvalue = [11, 1]\nclass = No"] ;
17 -> 21 ;
22 [label="Wife_education <= 0.5\ngini = 0.5\nsamples = 2\nvalue = [1, 1]\nclass = No"] ;
21 -> 22 ;
23 [label="gini = 0.0\nsamples = 1\nvalue = [0, 1]\nclass = Yes"] ;
22 -> 23 ;
24 [label="gini = 0.0\nsamples = 1\nvalue = [1, 0]\nclass = No"] ;
22 -> 24 ;
25 [label="gini = 0.0\nsamples = 10\nvalue = [10, 0]\nclass = No"] ;
21 -> 25 ;
26 [label="Husband_Occupation <= 0.5\ngini = 0.5\nsamples = 2\nvalue = [1, 1]\nclass = No"] ;
16 -> 26 ;
27 [label="gini = 0.0\nsamples = 1\nvalue = [1, 0]\nclass = No"] ;
26 -> 27 ;
28 [label="gini = 0.0\nsamples = 1\nvalue = [0, 1]\nclass = Yes"] ;
26 -> 28 ;
29 [label="gini = 0.0\nsamples = 11\nvalue = [11, 0]\nclass = No"] ;
15 -> 29 ;
30 [label="gini = 0.0\nsamples = 1\nvalue = [0, 1]\nclass = Yes"] ;
14 -> 30 ;
31 [label="gini = 0.0\nsamples = 1\nvalue = [0, 1]\nclass = Yes"] ;
13 -> 31 ;
32 [label="gini = 0.0\nsamples = 21\nvalue = [21, 0]\nclass = No"] ;
12 -> 32 ;
33 [label="Wife_Working <= 0.5\ngini = 0.48\nsamples = 10\nvalue = [4, 6]\nclass = Yes"] ;
3 -> 33 ;
34 [label="gini = 0.0\nsamples = 4\nvalue = [0, 4]\nclass = Yes"] ;
33 -> 34 ;
35 [label="Husband_Occupation <= 1.5\ngini = 0.444\nsamples = 6\nvalue = [4, 2]\nclass = No"] ;
33 -> 35 ;
36 [label="Husband_Occupation <= 0.5\ngini = 0.444\nsamples = 3\nvalue = [1, 2]\nclass = Yes"] ;
35 -> 36 ;
37 [label="gini = 0.0\nsamples = 1\nvalue = [1, 0]\nclass = No"] ;
36 -> 37 ;
38 [label="gini = 0.0\nsamples = 2\nvalue = [0, 2]\nclass = Yes"] ;
36 -> 38 ;
39 [label="gini = 0.0\nsamples = 3\nvalue = [3, 0]\nclass = No"] ;
35 -> 39 ;
40 [label="Wife_education <= 0.5\ngini = 0.497\nsamples = 145\nvalue = [67, 78]\nclass = Yes"] ;
2 -> 40 ;
41 [label="Husband_Occupation <= 2.5\ngini = 0.394\nsamples = 37\nvalue = [27, 10]\nclass = No"] ;
40 -> 41 ;
42 [label="Husband_Occupation <= 1.5\ngini = 0.353\nsamples = 35\nvalue = [27, 8]\nclass = No"] ;
41 -> 42 ;
43 [label="Wife_age <= 21.0\ngini = 0.133\nsamples = 14\nvalue = [13, 1]\nclass = No"] ;
42 -> 43 ;
44 [label="Standard_of_living_index <= 2.5\ngini = 0.375\nsamples = 4\nvalue = [3, 1]\nclass = No"] ;
43 -> 44 ;
45 [label="gini = 0.0\nsamples = 3\nvalue = [3, 0]\nclass = No"] ;
44 -> 45 ;
46 [label="gini = 0.0\nsamples = 1\nvalue = [0, 1]\nclass = Yes"] ;
44 -> 46 ;
47 [label="gini = 0.0\nsamples = 10\nvalue = [10, 0]\nclass = No"] ;
43 -> 47 ;
48 [label="Husband_education <= 0.5\ngini = 0.444\nsamples = 21\nvalue = [14, 7]\nclass = No"] ;
42 -> 48 ;
49 [label="Media_exposure <= 0.5\ngini = 0.49\nsamples = 7\nvalue = [3, 4]\nclass = Yes"] ;
48 -> 49 ;
50 [label="Wife_age <= 26.5\ngini = 0.444\nsamples = 6\nvalue = [2, 4]\nclass = Yes"] ;
49 -> 50 ;
51 [label="Wife_age <= 23.0\ngini = 0.32\nsamples = 5\nvalue = [1, 4]\nclass = Yes"] ;
50 -> 51 ;
52 [label="Wife_age <= 19.0\ngini = 0.444\nsamples = 3\nvalue = [1, 2]\nclass = Yes"] ;
51 -> 52 ;
53 [label="gini = 0.0\nsamples = 1\nvalue = [0, 1]\nclass = Yes"] ;
52 -> 53 ;
54 [label="gini = 0.5\nsamples = 2\nvalue = [1, 1]\nclass = No"] ;
52 -> 54 ;
55 [label="gini = 0.0\nsamples = 2\nvalue = [0, 2]\nclass = Yes"] ;
51 -> 55 ;
56 [label="gini = 0.0\nsamples = 1\nvalue = [1, 0]\nclass = No"] ;
50 -> 56 ;
57 [label="gini = 0.0\nsamples = 1\nvalue = [1, 0]\nclass = No"] ;
49 -> 57 ;
58 [label="Wife_age <= 20.5\ngini = 0.337\nsamples = 14\nvalue = [11, 3]\nclass = No"] ;
48 -> 58 ;
59 [label="gini = 0.0\nsamples = 4\nvalue = [4, 0]\nclass = No"] ;
58 -> 59 ;
60 [label="Wife_age <= 21.5\ngini = 0.42\nsamples = 10\nvalue = [7, 3]\nclass = No"] ;
58 -> 60 ;
61 [label="gini = 0.0\nsamples = 1\nvalue = [0, 1]\nclass = Yes"] ;
60 -> 61 ;
62 [label="Wife_age <= 27.5\ngini = 0.346\nsamples = 9\nvalue = [7, 2]\nclass = No"] ;
60 -> 62 ;
63 [label="Standard_of_living_index <= 2.5\ngini = 0.444\nsamples = 6\nvalue = [4, 2]\nclass = No"] ;
62 -> 63 ;
64 [label="Husband_education <= 1.5\ngini = 0.32\nsamples = 5\nvalue = [4, 1]\nclass = No"] ;
63 -> 64 ;
65 [label="gini = 0.0\nsamples = 3\nvalue = [3, 0]\nclass = No"] ;
64 -> 65 ;
66 [label="Wife_age <= 24.5\ngini = 0.5\nsamples = 2\nvalue = [1, 1]\nclass = No"] ;
64 -> 66 ;
67 [label="gini = 0.0\nsamples = 1\nvalue = [1, 0]\nclass = No"] ;
66 -> 67 ;
68 [label="gini = 0.0\nsamples = 1\nvalue = [0, 1]\nclass = Yes"] ;
66 -> 68 ;
69 [label="gini = 0.0\nsamples = 1\nvalue = [0, 1]\nclass = Yes"] ;
63 -> 69 ;
70 [label="gini = 0.0\nsamples = 3\nvalue = [3, 0]\nclass = No"] ;
62 -> 70 ;
71 [label="gini = 0.0\nsamples = 2\nvalue = [0, 2]\nclass = Yes"] ;
41 -> 71 ;
72 [label="Wife_age <= 24.5\ngini = 0.466\nsamples = 108\nvalue = [40, 68]\nclass = Yes"] ;
40 -> 72 ;
73 [label="Wife_age <= 18.5\ngini = 0.375\nsamples = 56\nvalue = [14, 42]\nclass = Yes"] ;
72 -> 73 ;
74 [label="Wife_age <= 17.5\ngini = 0.48\nsamples = 5\nvalue = [3, 2]\nclass = No"] ;
73 -> 74 ;
75 [label="Wife_age <= 16.5\ngini = 0.444\nsamples = 3\nvalue = [1, 2]\nclass = Yes"] ;
74 -> 75 ;
76 [label="gini = 0.0\nsamples = 1\nvalue = [1, 0]\nclass = No"] ;
75 -> 76 ;
77 [label="gini = 0.0\nsamples = 2\nvalue = [0, 2]\nclass = Yes"] ;
75 -> 77 ;
78 [label="gini = 0.0\nsamples = 2\nvalue = [2, 0]\nclass = No"] ;
74 -> 78 ;
79 [label="Wife_Working <= 0.5\ngini = 0.338\nsamples = 51\nvalue = [11, 40]\nclass = Yes"] ;
73 -> 79 ;
80 [label="Wife_age <= 20.5\ngini = 0.26\nsamples = 39\nvalue = [6, 33]\nclass = Yes"] ;
79 -> 80 ;
81 [label="Husband_Occupation <= 0.5\ngini = 0.42\nsamples = 10\nvalue = [3, 7]\nclass = Yes"] ;
80 -> 81 ;
82 [label="gini = 0.0\nsamples = 1\nvalue = [1, 0]\nclass = No"] ;
81 -> 82 ;
83 [label="Standard_of_living_index <= 1.5\ngini = 0.346\nsamples = 9\nvalue = [2, 7]\nclass = Yes"] ;
81 -> 83 ;
84 [label="Wife_education <= 1.5\ngini = 0.48\nsamples = 5\nvalue = [2, 3]\nclass = Yes"] ;
83 -> 84 ;
85 [label="Standard_of_living_index <= 0.5\ngini = 0.444\nsamples = 3\nvalue = [2, 1]\nclass = No"] ;
84 -> 85 ;
86 [label="gini = 0.0\nsamples = 1\nvalue = [1, 0]\nclass = No"] ;
85 -> 86 ;
87 [label="gini = 0.5\nsamples = 2\nvalue = [1, 1]\nclass = No"] ;
85 -> 87 ;
88 [label="gini = 0.0\nsamples = 2\nvalue = [0, 2]\nclass = Yes"] ;
84 -> 88 ;
89 [label="gini = 0.0\nsamples = 4\nvalue = [0, 4]\nclass = Yes"] ;
83 -> 89 ;
90 [label="Wife_education <= 1.5\ngini = 0.185\nsamples = 29\nvalue = [3, 26]\nclass = Yes"] ;
80 -> 90 ;
91 [label="gini = 0.0\nsamples = 10\nvalue = [0, 10]\nclass = Yes"] ;
90 -> 91 ;
92 [label="Husband_Occupation <= 0.5\ngini = 0.266\nsamples = 19\nvalue = [3, 16]\nclass = Yes"] ;
90 -> 92 ;
93 [label="gini = 0.0\nsamples = 7\nvalue = [0, 7]\nclass = Yes"] ;
92 -> 93 ;
94 [label="Wife_age <= 23.5\ngini = 0.375\nsamples = 12\nvalue = [3, 9]\nclass = Yes"] ;
92 -> 94 ;
95 [label="Standard_of_living_index <= 2.5\ngini = 0.444\nsamples = 9\nvalue = [3, 6]\nclass = Yes"] ;
94 -> 95 ;
96 [label="Media_exposure <= 0.5\ngini = 0.49\nsamples = 7\nvalue = [3, 4]\nclass = Yes"] ;
95 -> 96 ;
97 [label="Wife_age <= 21.5\ngini = 0.5\nsamples = 6\nvalue = [3, 3]\nclass = No"] ;
96 -> 97 ;
98 [label="Husband_Occupation <= 1.5\ngini = 0.444\nsamples = 3\nvalue = [2, 1]\nclass = No"] ;
97 -> 98 ;
99 [label="gini = 0.0\nsamples = 1\nvalue = [0, 1]\nclass = Yes"] ;
98 -> 99 ;
100 [label="gini = 0.0\nsamples = 2\nvalue = [2, 0]\nclass = No"] ;
98 -> 100 ;
101 [label="Standard_of_living_index <= 1.0\ngini = 0.444\nsamples = 3\nvalue = [1, 2]\nclass = Yes"] ;
97 -> 101 ;
102 [label="Husband_Occupation <= 1.5\ngini = 0.5\nsamples = 2\nvalue = [1, 1]\nclass = No"] ;
101 -> 102 ;
103 [label="gini = 0.0\nsamples = 1\nvalue = [1, 0]\nclass = No"] ;
102 -> 103 ;
104 [label="gini = 0.0\nsamples = 1\nvalue = [0, 1]\nclass = Yes"] ;
102 -> 104 ;
105 [label="gini = 0.0\nsamples = 1\nvalue = [0, 1]\nclass = Yes"] ;
101 -> 105 ;
106 [label="gini = 0.0\nsamples = 1\nvalue = [0, 1]\nclass = Yes"] ;
96 -> 106 ;
107 [label="gini = 0.0\nsamples = 2\nvalue = [0, 2]\nclass = Yes"] ;
95 -> 107 ;
108 [label="gini = 0.0\nsamples = 3\nvalue = [0, 3]\nclass = Yes"] ;
94 -> 108 ;
109 [label="Husband_education <= 1.5\ngini = 0.486\nsamples = 12\nvalue = [5, 7]\nclass = Yes"] ;
79 -> 109 ;
110 [label="gini = 0.0\nsamples = 2\nvalue = [2, 0]\nclass = No"] ;
109 -> 110 ;
111 [label="Wife_age <= 22.5\ngini = 0.42\nsamples = 10\nvalue = [3, 7]\nclass = Yes"] ;
109 -> 111 ;
112 [label="gini = 0.0\nsamples = 4\nvalue = [0, 4]\nclass = Yes"] ;
111 -> 112 ;
113 [label="Husband_education <= 2.5\ngini = 0.5\nsamples = 6\nvalue = [3, 3]\nclass = No"] ;
111 -> 113 ;
114 [label="Standard_of_living_index <= 1.0\ngini = 0.48\nsamples = 5\nvalue = [3, 2]\nclass = No"] ;
113 -> 114 ;
115 [label="gini = 0.0\nsamples = 2\nvalue = [2, 0]\nclass = No"] ;
114 -> 115 ;
116 [label="Wife_age <= 23.5\ngini = 0.444\nsamples = 3\nvalue = [1, 2]\nclass = Yes"] ;
114 -> 116 ;
117 [label="Husband_Occupation <= 1.5\ngini = 0.5\nsamples = 2\nvalue = [1, 1]\nclass = No"] ;
116 -> 117 ;
118 [label="gini = 0.0\nsamples = 1\nvalue = [1, 0]\nclass = No"] ;
117 -> 118 ;
119 [label="gini = 0.0\nsamples = 1\nvalue = [0, 1]\nclass = Yes"] ;
117 -> 119 ;
120 [label="gini = 0.0\nsamples = 1\nvalue = [0, 1]\nclass = Yes"] ;
116 -> 120 ;
121 [label="gini = 0.0\nsamples = 1\nvalue = [0, 1]\nclass = Yes"] ;
113 -> 121 ;
122 [label="Wife_age <= 25.5\ngini = 0.5\nsamples = 52\nvalue = [26, 26]\nclass = No"] ;
72 -> 122 ;
123 [label="Husband_Occupation <= 0.5\ngini = 0.43\nsamples = 16\nvalue = [11, 5]\nclass = No"] ;
122 -> 123 ;
124 [label="Wife_religion <= 0.5\ngini = 0.375\nsamples = 4\nvalue = [1, 3]\nclass = Yes"] ;
123 -> 124 ;
125 [label="gini = 0.0\nsamples = 1\nvalue = [0, 1]\nclass = Yes"] ;
124 -> 125 ;
126 [label="Wife_Working <= 0.5\ngini = 0.444\nsamples = 3\nvalue = [1, 2]\nclass = Yes"] ;
124 -> 126 ;
127 [label="gini = 0.5\nsamples = 2\nvalue = [1, 1]\nclass = No"] ;
126 -> 127 ;
128 [label="gini = 0.0\nsamples = 1\nvalue = [0, 1]\nclass = Yes"] ;
126 -> 128 ;
129 [label="Wife_religion <= 0.5\ngini = 0.278\nsamples = 12\nvalue = [10, 2]\nclass = No"] ;
123 -> 129 ;
130 [label="Husband_Occupation <= 1.5\ngini = 0.5\nsamples = 2\nvalue = [1, 1]\nclass = No"] ;
129 -> 130 ;
131 [label="gini = 0.0\nsamples = 1\nvalue = [1, 0]\nclass = No"] ;
130 -> 131 ;
132 [label="gini = 0.0\nsamples = 1\nvalue = [0, 1]\nclass = Yes"] ;
130 -> 132 ;
133 [label="Standard_of_living_index <= 2.5\ngini = 0.18\nsamples = 10\nvalue = [9, 1]\nclass = No"] ;
129 -> 133 ;
134 [label="gini = 0.0\nsamples = 7\nvalue = [7, 0]\nclass = No"] ;
133 -> 134 ;
135 [label="Husband_education <= 1.5\ngini = 0.444\nsamples = 3\nvalue = [2, 1]\nclass = No"] ;
133 -> 135 ;
136 [label="gini = 0.5\nsamples = 2\nvalue = [1, 1]\nclass = No"] ;
135 -> 136 ;
137 [label="gini = 0.0\nsamples = 1\nvalue = [1, 0]\nclass = No"] ;
135 -> 137 ;
138 [label="Husband_Occupation <= 0.5\ngini = 0.486\nsamples = 36\nvalue = [15, 21]\nclass = Yes"] ;
122 -> 138 ;
139 [label="Wife_Working <= 0.5\ngini = 0.473\nsamples = 13\nvalue = [8, 5]\nclass = No"] ;
138 -> 139 ;
140 [label="Wife_religion <= 0.5\ngini = 0.494\nsamples = 9\nvalue = [5, 4]\nclass = No"] ;
139 -> 140 ;
141 [label="gini = 0.0\nsamples = 2\nvalue = [2, 0]\nclass = No"] ;
140 -> 141 ;
142 [label="Wife_age <= 27.5\ngini = 0.49\nsamples = 7\nvalue = [3, 4]\nclass = Yes"] ;
140 -> 142 ;
143 [label="gini = 0.0\nsamples = 1\nvalue = [1, 0]\nclass = No"] ;
142 -> 143 ;
144 [label="Wife_age <= 28.5\ngini = 0.444\nsamples = 6\nvalue = [2, 4]\nclass = Yes"] ;
142 -> 144 ;
145 [label="gini = 0.0\nsamples = 1\nvalue = [0, 1]\nclass = Yes"] ;
144 -> 145 ;
146 [label="Wife_age <= 29.5\ngini = 0.48\nsamples = 5\nvalue = [2, 3]\nclass = Yes"] ;
144 -> 146 ;
147 [label="gini = 0.0\nsamples = 1\nvalue = [1, 0]\nclass = No"] ;
146 -> 147 ;
148 [label="Wife_age <= 31.5\ngini = 0.375\nsamples = 4\nvalue = [1, 3]\nclass = Yes"] ;
146 -> 148 ;
149 [label="gini = 0.0\nsamples = 2\nvalue = [0, 2]\nclass = Yes"] ;
148 -> 149 ;
150 [label="Standard_of_living_index <= 1.0\ngini = 0.5\nsamples = 2\nvalue = [1, 1]\nclass = No"] ;
148 -> 150 ;
151 [label="gini = 0.0\nsamples = 1\nvalue = [0, 1]\nclass = Yes"] ;
150 -> 151 ;
152 [label="gini = 0.0\nsamples = 1\nvalue = [1, 0]\nclass = No"] ;
150 -> 152 ;
153 [label="Wife_religion <= 0.5\ngini = 0.375\nsamples = 4\nvalue = [3, 1]\nclass = No"] ;
139 -> 153 ;
154 [label="gini = 0.0\nsamples = 1\nvalue = [0, 1]\nclass = Yes"] ;
153 -> 154 ;
155 [label="gini = 0.0\nsamples = 3\nvalue = [3, 0]\nclass = No"] ;
153 -> 155 ;
156 [label="Standard_of_living_index <= 2.5\ngini = 0.423\nsamples = 23\nvalue = [7, 16]\nclass = Yes"] ;
138 -> 156 ;
157 [label="Standard_of_living_index <= 0.5\ngini = 0.363\nsamples = 21\nvalue = [5, 16]\nclass = Yes"] ;
156 -> 157 ;
158 [label="gini = 0.0\nsamples = 7\nvalue = [0, 7]\nclass = Yes"] ;
157 -> 158 ;
159 [label="Wife_education <= 2.5\ngini = 0.459\nsamples = 14\nvalue = [5, 9]\nclass = Yes"] ;
157 -> 159 ;
160 [label="Wife_age <= 26.5\ngini = 0.426\nsamples = 13\nvalue = [4, 9]\nclass = Yes"] ;
159 -> 160 ;
161 [label="gini = 0.0\nsamples = 2\nvalue = [0, 2]\nclass = Yes"] ;
160 -> 161 ;
162 [label="Wife_Working <= 0.5\ngini = 0.463\nsamples = 11\nvalue = [4, 7]\nclass = Yes"] ;
160 -> 162 ;
163 [label="Wife_religion <= 0.5\ngini = 0.5\nsamples = 6\nvalue = [3, 3]\nclass = No"] ;
162 -> 163 ;
164 [label="Wife_age <= 29.0\ngini = 0.48\nsamples = 5\nvalue = [3, 2]\nclass = No"] ;
163 -> 164 ;
165 [label="Wife_age <= 27.5\ngini = 0.375\nsamples = 4\nvalue = [3, 1]\nclass = No"] ;
164 -> 165 ;
166 [label="gini = 0.5\nsamples = 2\nvalue = [1, 1]\nclass = No"] ;
165 -> 166 ;
167 [label="gini = 0.0\nsamples = 2\nvalue = [2, 0]\nclass = No"] ;
165 -> 167 ;
168 [label="gini = 0.0\nsamples = 1\nvalue = [0, 1]\nclass = Yes"] ;
164 -> 168 ;
169 [label="gini = 0.0\nsamples = 1\nvalue = [0, 1]\nclass = Yes"] ;
163 -> 169 ;
170 [label="Wife_age <= 30.5\ngini = 0.32\nsamples = 5\nvalue = [1, 4]\nclass = Yes"] ;
162 -> 170 ;
171 [label="gini = 0.0\nsamples = 3\nvalue = [0, 3]\nclass = Yes"] ;
170 -> 171 ;
172 [label="Wife_age <= 31.5\ngini = 0.5\nsamples = 2\nvalue = [1, 1]\nclass = No"] ;
170 -> 172 ;
173 [label="gini = 0.0\nsamples = 1\nvalue = [1, 0]\nclass = No"] ;
172 -> 173 ;
174 [label="gini = 0.0\nsamples = 1\nvalue = [0, 1]\nclass = Yes"] ;
172 -> 174 ;
175 [label="gini = 0.0\nsamples = 1\nvalue = [1, 0]\nclass = No"] ;
159 -> 175 ;
176 [label="gini = 0.0\nsamples = 2\nvalue = [2, 0]\nclass = No"] ;
156 -> 176 ;
177 [label="Wife_religion <= 0.5\ngini = 0.201\nsamples = 44\nvalue = [39, 5]\nclass = No"] ;
1 -> 177 ;
178 [label="Husband_education <= 0.5\ngini = 0.42\nsamples = 10\nvalue = [7, 3]\nclass = No"] ;
177 -> 178 ;
179 [label="gini = 0.0\nsamples = 1\nvalue = [0, 1]\nclass = Yes"] ;
178 -> 179 ;
180 [label="Wife_age <= 38.0\ngini = 0.346\nsamples = 9\nvalue = [7, 2]\nclass = No"] ;
178 -> 180 ;
181 [label="Husband_Occupation <= 0.5\ngini = 0.5\nsamples = 4\nvalue = [2, 2]\nclass = No"] ;
180 -> 181 ;
182 [label="gini = 0.0\nsamples = 2\nvalue = [0, 2]\nclass = Yes"] ;
181 -> 182 ;
183 [label="gini = 0.0\nsamples = 2\nvalue = [2, 0]\nclass = No"] ;
181 -> 183 ;
184 [label="gini = 0.0\nsamples = 5\nvalue = [5, 0]\nclass = No"] ;
180 -> 184 ;
185 [label="Wife_age <= 40.5\ngini = 0.111\nsamples = 34\nvalue = [32, 2]\nclass = No"] ;
177 -> 185 ;
186 [label="gini = 0.0\nsamples = 14\nvalue = [14, 0]\nclass = No"] ;
185 -> 186 ;
187 [label="Wife_age <= 42.5\ngini = 0.18\nsamples = 20\nvalue = [18, 2]\nclass = No"] ;
185 -> 187 ;
188 [label="Standard_of_living_index <= 1.0\ngini = 0.444\nsamples = 6\nvalue = [4, 2]\nclass = No"] ;
187 -> 188 ;
189 [label="Wife_education <= 1.5\ngini = 0.32\nsamples = 5\nvalue = [4, 1]\nclass = No"] ;
188 -> 189 ;
190 [label="gini = 0.0\nsamples = 4\nvalue = [4, 0]\nclass = No"] ;
189 -> 190 ;
191 [label="gini = 0.0\nsamples = 1\nvalue = [0, 1]\nclass = Yes"] ;
189 -> 191 ;
192 [label="gini = 0.0\nsamples = 1\nvalue = [0, 1]\nclass = Yes"] ;
188 -> 192 ;
193 [label="gini = 0.0\nsamples = 14\nvalue = [14, 0]\nclass = No"] ;
187 -> 193 ;
194 [label="Wife_age <= 37.5\ngini = 0.465\nsamples = 714\nvalue = [262, 452]\nclass = Yes"] ;
0 -> 194 [labeldistance=2.5, labelangle=-45, headlabel="False"] ;
195 [label="No_of_children_born <= 2.5\ngini = 0.409\nsamples = 475\nvalue = [136, 339]\nclass = Yes"] ;
194 -> 195 ;
196 [label="Wife_education <= 1.5\ngini = 0.483\nsamples = 152\nvalue = [62, 90]\nclass = Yes"] ;
195 -> 196 ;
197 [label="Wife_age <= 20.5\ngini = 0.5\nsamples = 84\nvalue = [41, 43]\nclass = Yes"] ;
196 -> 197 ;
198 [label="gini = 0.0\nsamples = 3\nvalue = [3, 0]\nclass = No"] ;
197 -> 198 ;
199 [label="Wife_age <= 34.5\ngini = 0.498\nsamples = 81\nvalue = [38, 43]\nclass = Yes"] ;
197 -> 199 ;
200 [label="Wife_religion <= 0.5\ngini = 0.495\nsamples = 78\nvalue = [35, 43]\nclass = Yes"] ;
199 -> 200 ;
201 [label="gini = 0.0\nsamples = 4\nvalue = [0, 4]\nclass = Yes"] ;
200 -> 201 ;
202 [label="Wife_age <= 24.5\ngini = 0.499\nsamples = 74\nvalue = [35, 39]\nclass = Yes"] ;
200 -> 202 ;
203 [label="Wife_Working <= 0.5\ngini = 0.485\nsamples = 29\nvalue = [17, 12]\nclass = No"] ;
202 -> 203 ;
204 [label="Husband_Occupation <= 0.5\ngini = 0.461\nsamples = 25\nvalue = [16, 9]\nclass = No"] ;
203 -> 204 ;
205 [label="gini = 0.0\nsamples = 1\nvalue = [0, 1]\nclass = Yes"] ;
204 -> 205 ;
206 [label="Standard_of_living_index <= 0.5\ngini = 0.444\nsamples = 24\nvalue = [16, 8]\nclass = No"] ;
204 -> 206 ;
207 [label="Wife_age <= 22.5\ngini = 0.5\nsamples = 8\nvalue = [4, 4]\nclass = No"] ;
206 -> 207 ;
208 [label="gini = 0.0\nsamples = 2\nvalue = [0, 2]\nclass = Yes"] ;
207 -> 208 ;
209 [label="Wife_age <= 23.5\ngini = 0.444\nsamples = 6\nvalue = [4, 2]\nclass = No"] ;
207 -> 209 ;
210 [label="gini = 0.0\nsamples = 3\nvalue = [3, 0]\nclass = No"] ;
209 -> 210 ;
211 [label="Husband_education <= 1.5\ngini = 0.444\nsamples = 3\nvalue = [1, 2]\nclass = Yes"] ;
209 -> 211 ;
212 [label="gini = 0.5\nsamples = 2\nvalue = [1, 1]\nclass = No"] ;
211 -> 212 ;
213 [label="gini = 0.0\nsamples = 1\nvalue = [0, 1]\nclass = Yes"] ;
211 -> 213 ;
214 [label="Husband_education <= 0.5\ngini = 0.375\nsamples = 16\nvalue = [12, 4]\nclass = No"] ;
206 -> 214 ;
215 [label="Standard_of_living_index <= 2.5\ngini = 0.5\nsamples = 4\nvalue = [2, 2]\nclass = No"] ;
214 -> 215 ;
216 [label="gini = 0.0\nsamples = 1\nvalue = [0, 1]\nclass = Yes"] ;
215 -> 216 ;
217 [label="Wife_education <= 0.5\ngini = 0.444\nsamples = 3\nvalue = [2, 1]\nclass = No"] ;
215 -> 217 ;
218 [label="gini = 0.0\nsamples = 2\nvalue = [2, 0]\nclass = No"] ;
217 -> 218 ;
219 [label="gini = 0.0\nsamples = 1\nvalue = [0, 1]\nclass = Yes"] ;
217 -> 219 ;
220 [label="Standard_of_living_index <= 1.5\ngini = 0.278\nsamples = 12\nvalue = [10, 2]\nclass = No"] ;
214 -> 220 ;
221 [label="gini = 0.0\nsamples = 3\nvalue = [3, 0]\nclass = No"] ;
220 -> 221 ;
222 [label="Wife_age <= 23.5\ngini = 0.346\nsamples = 9\nvalue = [7, 2]\nclass = No"] ;
220 -> 222 ;
223 [label="Husband_Occupation <= 1.5\ngini = 0.408\nsamples = 7\nvalue = [5, 2]\nclass = No"] ;
222 -> 223 ;
224 [label="Husband_education <= 1.5\ngini = 0.5\nsamples = 2\nvalue = [1, 1]\nclass = No"] ;
223 -> 224 ;
225 [label="gini = 0.0\nsamples = 1\nvalue = [1, 0]\nclass = No"] ;
224 -> 225 ;
226 [label="gini = 0.0\nsamples = 1\nvalue = [0, 1]\nclass = Yes"] ;
224 -> 226 ;
227 [label="Wife_age <= 22.5\ngini = 0.32\nsamples = 5\nvalue = [4, 1]\nclass = No"] ;
223 -> 227 ;
228 [label="gini = 0.0\nsamples = 3\nvalue = [3, 0]\nclass = No"] ;
227 -> 228 ;
229 [label="Standard_of_living_index <= 2.5\ngini = 0.5\nsamples = 2\nvalue = [1, 1]\nclass = No"] ;
227 -> 229 ;
230 [label="gini = 0.0\nsamples = 1\nvalue = [1, 0]\nclass = No"] ;
229 -> 230 ;
231 [label="gini = 0.0\nsamples = 1\nvalue = [0, 1]\nclass = Yes"] ;
229 -> 231 ;
232 [label="gini = 0.0\nsamples = 2\nvalue = [2, 0]\nclass = No"] ;
222 -> 232 ;
233 [label="Wife_age <= 23.5\ngini = 0.375\nsamples = 4\nvalue = [1, 3]\nclass = Yes"] ;
203 -> 233 ;
234 [label="gini = 0.0\nsamples = 3\nvalue = [0, 3]\nclass = Yes"] ;
233 -> 234 ;
235 [label="gini = 0.0\nsamples = 1\nvalue = [1, 0]\nclass = No"] ;
233 -> 235 ;
236 [label="Husband_education <= 0.5\ngini = 0.48\nsamples = 45\nvalue = [18, 27]\nclass = Yes"] ;
202 -> 236 ;
237 [label="gini = 0.0\nsamples = 3\nvalue = [3, 0]\nclass = No"] ;
236 -> 237 ;
238 [label="Wife_age <= 28.5\ngini = 0.459\nsamples = 42\nvalue = [15, 27]\nclass = Yes"] ;
236 -> 238 ;
239 [label="Standard_of_living_index <= 1.5\ngini = 0.363\nsamples = 21\nvalue = [5, 16]\nclass = Yes"] ;
238 -> 239 ;
240 [label="Wife_age <= 27.5\ngini = 0.415\nsamples = 17\nvalue = [5, 12]\nclass = Yes"] ;
239 -> 240 ;
241 [label="Wife_education <= 0.5\ngini = 0.459\nsamples = 14\nvalue = [5, 9]\nclass = Yes"] ;
240 -> 241 ;
242 [label="Wife_age <= 25.5\ngini = 0.5\nsamples = 4\nvalue = [2, 2]\nclass = No"] ;
241 -> 242 ;
243 [label="gini = 0.0\nsamples = 1\nvalue = [1, 0]\nclass = No"] ;
242 -> 243 ;
244 [label="Husband_Occupation <= 1.0\ngini = 0.444\nsamples = 3\nvalue = [1, 2]\nclass = Yes"] ;
242 -> 244 ;
245 [label="gini = 0.0\nsamples = 1\nvalue = [0, 1]\nclass = Yes"] ;
244 -> 245 ;
246 [label="gini = 0.5\nsamples = 2\nvalue = [1, 1]\nclass = No"] ;
244 -> 246 ;
247 [label="Husband_education <= 1.5\ngini = 0.42\nsamples = 10\nvalue = [3, 7]\nclass = Yes"] ;
241 -> 247 ;
248 [label="gini = 0.0\nsamples = 4\nvalue = [0, 4]\nclass = Yes"] ;
247 -> 248 ;
249 [label="Wife_Working <= 0.5\ngini = 0.5\nsamples = 6\nvalue = [3, 3]\nclass = No"] ;
247 -> 249 ;
250 [label="Standard_of_living_index <= 0.5\ngini = 0.48\nsamples = 5\nvalue = [2, 3]\nclass = Yes"] ;
249 -> 250 ;
251 [label="Husband_Occupation <= 1.0\ngini = 0.5\nsamples = 4\nvalue = [2, 2]\nclass = No"] ;
250 -> 251 ;
252 [label="gini = 0.5\nsamples = 2\nvalue = [1, 1]\nclass = No"] ;
251 -> 252 ;
253 [label="gini = 0.5\nsamples = 2\nvalue = [1, 1]\nclass = No"] ;
251 -> 253 ;
254 [label="gini = 0.0\nsamples = 1\nvalue = [0, 1]\nclass = Yes"] ;
250 -> 254 ;
255 [label="gini = 0.0\nsamples = 1\nvalue = [1, 0]\nclass = No"] ;
249 -> 255 ;
256 [label="gini = 0.0\nsamples = 3\nvalue = [0, 3]\nclass = Yes"] ;
240 -> 256 ;
257 [label="gini = 0.0\nsamples = 4\nvalue = [0, 4]\nclass = Yes"] ;
239 -> 257 ;
258 [label="Wife_age <= 31.5\ngini = 0.499\nsamples = 21\nvalue = [10, 11]\nclass = Yes"] ;
238 -> 258 ;
259 [label="Wife_age <= 30.5\ngini = 0.459\nsamples = 14\nvalue = [9, 5]\nclass = No"] ;
258 -> 259 ;
260 [label="Wife_education <= 0.5\ngini = 0.5\nsamples = 8\nvalue = [4, 4]\nclass = No"] ;
259 -> 260 ;
261 [label="gini = 0.0\nsamples = 2\nvalue = [2, 0]\nclass = No"] ;
260 -> 261 ;
262 [label="Husband_education <= 1.5\ngini = 0.444\nsamples = 6\nvalue = [2, 4]\nclass = Yes"] ;
260 -> 262 ;
263 [label="gini = 0.0\nsamples = 2\nvalue = [0, 2]\nclass = Yes"] ;
262 -> 263 ;
264 [label="Husband_Occupation <= 1.0\ngini = 0.5\nsamples = 4\nvalue = [2, 2]\nclass = No"] ;
262 -> 264 ;
265 [label="Standard_of_living_index <= 0.5\ngini = 0.444\nsamples = 3\nvalue = [1, 2]\nclass = Yes"] ;
264 -> 265 ;
266 [label="gini = 0.0\nsamples = 1\nvalue = [1, 0]\nclass = No"] ;
265 -> 266 ;
267 [label="gini = 0.0\nsamples = 2\nvalue = [0, 2]\nclass = Yes"] ;
265 -> 267 ;
268 [label="gini = 0.0\nsamples = 1\nvalue = [1, 0]\nclass = No"] ;
264 -> 268 ;
269 [label="Husband_education <= 1.5\ngini = 0.278\nsamples = 6\nvalue = [5, 1]\nclass = No"] ;
259 -> 269 ;
270 [label="Husband_Occupation <= 1.5\ngini = 0.444\nsamples = 3\nvalue = [2, 1]\nclass = No"] ;
269 -> 270 ;
271 [label="gini = 0.0\nsamples = 1\nvalue = [1, 0]\nclass = No"] ;
270 -> 271 ;
272 [label="gini = 0.5\nsamples = 2\nvalue = [1, 1]\nclass = No"] ;
270 -> 272 ;
273 [label="gini = 0.0\nsamples = 3\nvalue = [3, 0]\nclass = No"] ;
269 -> 273 ;
274 [label="Standard_of_living_index <= 0.5\ngini = 0.245\nsamples = 7\nvalue = [1, 6]\nclass = Yes"] ;
258 -> 274 ;
275 [label="Husband_education <= 1.5\ngini = 0.5\nsamples = 2\nvalue = [1, 1]\nclass = No"] ;
274 -> 275 ;
276 [label="gini = 0.0\nsamples = 1\nvalue = [0, 1]\nclass = Yes"] ;
275 -> 276 ;
277 [label="gini = 0.0\nsamples = 1\nvalue = [1, 0]\nclass = No"] ;
275 -> 277 ;
278 [label="gini = 0.0\nsamples = 5\nvalue = [0, 5]\nclass = Yes"] ;
274 -> 278 ;
279 [label="gini = 0.0\nsamples = 3\nvalue = [3, 0]\nclass = No"] ;
199 -> 279 ;
280 [label="Wife_age <= 32.5\ngini = 0.427\nsamples = 68\nvalue = [21, 47]\nclass = Yes"] ;
196 -> 280 ;
281 [label="Media_exposure <= 0.5\ngini = 0.343\nsamples = 50\nvalue = [11, 39]\nclass = Yes"] ;
280 -> 281 ;
282 [label="Wife_age <= 23.5\ngini = 0.325\nsamples = 49\nvalue = [10, 39]\nclass = Yes"] ;
281 -> 282 ;
283 [label="Wife_education <= 2.5\ngini = 0.469\nsamples = 8\nvalue = [3, 5]\nclass = Yes"] ;
282 -> 283 ;
284 [label="Wife_age <= 21.5\ngini = 0.48\nsamples = 5\nvalue = [3, 2]\nclass = No"] ;
283 -> 284 ;
285 [label="gini = 0.0\nsamples = 1\nvalue = [0, 1]\nclass = Yes"] ;
284 -> 285 ;
286 [label="Wife_Working <= 0.5\ngini = 0.375\nsamples = 4\nvalue = [3, 1]\nclass = No"] ;
284 -> 286 ;
287 [label="gini = 0.0\nsamples = 2\nvalue = [2, 0]\nclass = No"] ;
286 -> 287 ;
288 [label="Husband_Occupation <= 1.5\ngini = 0.5\nsamples = 2\nvalue = [1, 1]\nclass = No"] ;
286 -> 288 ;
289 [label="gini = 0.0\nsamples = 1\nvalue = [0, 1]\nclass = Yes"] ;
288 -> 289 ;
290 [label="gini = 0.0\nsamples = 1\nvalue = [1, 0]\nclass = No"] ;
288 -> 290 ;
291 [label="gini = 0.0\nsamples = 3\nvalue = [0, 3]\nclass = Yes"] ;
283 -> 291 ;
292 [label="Standard_of_living_index <= 2.5\ngini = 0.283\nsamples = 41\nvalue = [7, 34]\nclass = Yes"] ;
282 -> 292 ;
293 [label="Wife_age <= 30.5\ngini = 0.255\nsamples = 40\nvalue = [6, 34]\nclass = Yes"] ;
292 -> 293 ;
294 [label="Wife_age <= 27.5\ngini = 0.18\nsamples = 30\nvalue = [3, 27]\nclass = Yes"] ;
293 -> 294 ;
295 [label="Wife_age <= 24.5\ngini = 0.227\nsamples = 23\nvalue = [3, 20]\nclass = Yes"] ;
294 -> 295 ;
296 [label="gini = 0.0\nsamples = 5\nvalue = [0, 5]\nclass = Yes"] ;
295 -> 296 ;
297 [label="Wife_religion <= 0.5\ngini = 0.278\nsamples = 18\nvalue = [3, 15]\nclass = Yes"] ;
295 -> 297 ;
298 [label="gini = 0.0\nsamples = 2\nvalue = [0, 2]\nclass = Yes"] ;
297 -> 298 ;
299 [label="Husband_Occupation <= 0.5\ngini = 0.305\nsamples = 16\nvalue = [3, 13]\nclass = Yes"] ;
297 -> 299 ;
300 [label="Wife_age <= 25.5\ngini = 0.375\nsamples = 8\nvalue = [2, 6]\nclass = Yes"] ;
299 -> 300 ;
301 [label="gini = 0.0\nsamples = 2\nvalue = [0, 2]\nclass = Yes"] ;
300 -> 301 ;
302 [label="Wife_age <= 26.5\ngini = 0.444\nsamples = 6\nvalue = [2, 4]\nclass = Yes"] ;
300 -> 302 ;
303 [label="Standard_of_living_index <= 1.0\ngini = 0.5\nsamples = 2\nvalue = [1, 1]\nclass = No"] ;
302 -> 303 ;
304 [label="gini = 0.0\nsamples = 1\nvalue = [1, 0]\nclass = No"] ;
303 -> 304 ;
305 [label="gini = 0.0\nsamples = 1\nvalue = [0, 1]\nclass = Yes"] ;
303 -> 305 ;
306 [label="Standard_of_living_index <= 1.0\ngini = 0.375\nsamples = 4\nvalue = [1, 3]\nclass = Yes"] ;
302 -> 306 ;
307 [label="gini = 0.0\nsamples = 2\nvalue = [0, 2]\nclass = Yes"] ;
306 -> 307 ;
308 [label="Wife_Working <= 0.5\ngini = 0.5\nsamples = 2\nvalue = [1, 1]\nclass = No"] ;
306 -> 308 ;
309 [label="gini = 0.0\nsamples = 1\nvalue = [0, 1]\nclass = Yes"] ;
308 -> 309 ;
310 [label="gini = 0.0\nsamples = 1\nvalue = [1, 0]\nclass = No"] ;
308 -> 310 ;
311 [label="Wife_age <= 25.5\ngini = 0.219\nsamples = 8\nvalue = [1, 7]\nclass = Yes"] ;
299 -> 311 ;
312 [label="Standard_of_living_index <= 0.5\ngini = 0.375\nsamples = 4\nvalue = [1, 3]\nclass = Yes"] ;
311 -> 312 ;
313 [label="gini = 0.0\nsamples = 2\nvalue = [0, 2]\nclass = Yes"] ;
312 -> 313 ;
314 [label="Standard_of_living_index <= 1.5\ngini = 0.5\nsamples = 2\nvalue = [1, 1]\nclass = No"] ;
312 -> 314 ;
315 [label="gini = 0.0\nsamples = 1\nvalue = [1, 0]\nclass = No"] ;
314 -> 315 ;
316 [label="gini = 0.0\nsamples = 1\nvalue = [0, 1]\nclass = Yes"] ;
314 -> 316 ;
317 [label="gini = 0.0\nsamples = 4\nvalue = [0, 4]\nclass = Yes"] ;
311 -> 317 ;
318 [label="gini = 0.0\nsamples = 7\nvalue = [0, 7]\nclass = Yes"] ;
294 -> 318 ;
319 [label="Wife_age <= 31.5\ngini = 0.42\nsamples = 10\nvalue = [3, 7]\nclass = Yes"] ;
293 -> 319 ;
320 [label="gini = 0.0\nsamples = 2\nvalue = [2, 0]\nclass = No"] ;
319 -> 320 ;
321 [label="Standard_of_living_index <= 0.5\ngini = 0.219\nsamples = 8\nvalue = [1, 7]\nclass = Yes"] ;
319 -> 321 ;
322 [label="Husband_Occupation <= 0.5\ngini = 0.444\nsamples = 3\nvalue = [1, 2]\nclass = Yes"] ;
321 -> 322 ;
323 [label="gini = 0.0\nsamples = 1\nvalue = [0, 1]\nclass = Yes"] ;
322 -> 323 ;
324 [label="gini = 0.5\nsamples = 2\nvalue = [1, 1]\nclass = No"] ;
322 -> 324 ;
325 [label="gini = 0.0\nsamples = 5\nvalue = [0, 5]\nclass = Yes"] ;
321 -> 325 ;
326 [label="gini = 0.0\nsamples = 1\nvalue = [1, 0]\nclass = No"] ;
292 -> 326 ;
327 [label="gini = 0.0\nsamples = 1\nvalue = [1, 0]\nclass = No"] ;
281 -> 327 ;
328 [label="Wife_religion <= 0.5\ngini = 0.494\nsamples = 18\nvalue = [10, 8]\nclass = No"] ;
280 -> 328 ;
329 [label="Husband_education <= 1.5\ngini = 0.32\nsamples = 5\nvalue = [4, 1]\nclass = No"] ;
328 -> 329 ;
330 [label="gini = 0.0\nsamples = 1\nvalue = [0, 1]\nclass = Yes"] ;
329 -> 330 ;
331 [label="gini = 0.0\nsamples = 4\nvalue = [4, 0]\nclass = No"] ;
329 -> 331 ;
332 [label="Standard_of_living_index <= 1.0\ngini = 0.497\nsamples = 13\nvalue = [6, 7]\nclass = Yes"] ;
328 -> 332 ;
333 [label="Husband_Occupation <= 1.0\ngini = 0.375\nsamples = 4\nvalue = [3, 1]\nclass = No"] ;
332 -> 333 ;
334 [label="gini = 0.0\nsamples = 2\nvalue = [2, 0]\nclass = No"] ;
333 -> 334 ;
335 [label="Wife_age <= 35.0\ngini = 0.5\nsamples = 2\nvalue = [1, 1]\nclass = No"] ;
333 -> 335 ;
336 [label="gini = 0.0\nsamples = 1\nvalue = [0, 1]\nclass = Yes"] ;
335 -> 336 ;
337 [label="gini = 0.0\nsamples = 1\nvalue = [1, 0]\nclass = No"] ;
335 -> 337 ;
338 [label="Wife_age <= 35.5\ngini = 0.444\nsamples = 9\nvalue = [3, 6]\nclass = Yes"] ;
332 -> 338 ;
339 [label="Wife_age <= 34.5\ngini = 0.49\nsamples = 7\nvalue = [3, 4]\nclass = Yes"] ;
338 -> 339 ;
340 [label="Wife_Working <= 0.5\ngini = 0.5\nsamples = 4\nvalue = [2, 2]\nclass = No"] ;
339 -> 340 ;
341 [label="Wife_age <= 33.5\ngini = 0.5\nsamples = 2\nvalue = [1, 1]\nclass = No"] ;
340 -> 341 ;
342 [label="gini = 0.0\nsamples = 1\nvalue = [1, 0]\nclass = No"] ;
341 -> 342 ;
343 [label="gini = 0.0\nsamples = 1\nvalue = [0, 1]\nclass = Yes"] ;
341 -> 343 ;
344 [label="Wife_age <= 33.5\ngini = 0.5\nsamples = 2\nvalue = [1, 1]\nclass = No"] ;
340 -> 344 ;
345 [label="gini = 0.0\nsamples = 1\nvalue = [0, 1]\nclass = Yes"] ;
344 -> 345 ;
346 [label="gini = 0.0\nsamples = 1\nvalue = [1, 0]\nclass = No"] ;
344 -> 346 ;
347 [label="Husband_Occupation <= 0.5\ngini = 0.444\nsamples = 3\nvalue = [1, 2]\nclass = Yes"] ;
339 -> 347 ;
348 [label="gini = 0.0\nsamples = 1\nvalue = [0, 1]\nclass = Yes"] ;
347 -> 348 ;
349 [label="Wife_Working <= 0.5\ngini = 0.5\nsamples = 2\nvalue = [1, 1]\nclass = No"] ;
347 -> 349 ;
350 [label="gini = 0.0\nsamples = 1\nvalue = [0, 1]\nclass = Yes"] ;
349 -> 350 ;
351 [label="gini = 0.0\nsamples = 1\nvalue = [1, 0]\nclass = No"] ;
349 -> 351 ;
352 [label="gini = 0.0\nsamples = 2\nvalue = [0, 2]\nclass = Yes"] ;
338 -> 352 ;
353 [label="Wife_age <= 28.5\ngini = 0.353\nsamples = 323\nvalue = [74, 249]\nclass = Yes"] ;
195 -> 353 ;
354 [label="Standard_of_living_index <= 1.5\ngini = 0.452\nsamples = 81\nvalue = [28, 53]\nclass = Yes"] ;
353 -> 354 ;
355 [label="Wife_age <= 21.5\ngini = 0.339\nsamples = 37\nvalue = [8, 29]\nclass = Yes"] ;
354 -> 355 ;
356 [label="gini = 0.0\nsamples = 1\nvalue = [1, 0]\nclass = No"] ;
355 -> 356 ;
357 [label="No_of_children_born <= 5.5\ngini = 0.313\nsamples = 36\nvalue = [7, 29]\nclass = Yes"] ;
355 -> 357 ;
358 [label="Husband_education <= 1.5\ngini = 0.284\nsamples = 35\nvalue = [6, 29]\nclass = Yes"] ;
357 -> 358 ;
359 [label="Wife_education <= 2.5\ngini = 0.363\nsamples = 21\nvalue = [5, 16]\nclass = Yes"] ;
358 -> 359 ;
360 [label="Wife_age <= 23.5\ngini = 0.444\nsamples = 15\nvalue = [5, 10]\nclass = Yes"] ;
359 -> 360 ;
361 [label="gini = 0.0\nsamples = 2\nvalue = [0, 2]\nclass = Yes"] ;
360 -> 361 ;
362 [label="No_of_children_born <= 4.5\ngini = 0.473\nsamples = 13\nvalue = [5, 8]\nclass = Yes"] ;
360 -> 362 ;
363 [label="Husband_education <= 0.5\ngini = 0.494\nsamples = 9\nvalue = [4, 5]\nclass = Yes"] ;
362 -> 363 ;
364 [label="gini = 0.0\nsamples = 2\nvalue = [2, 0]\nclass = No"] ;
363 -> 364 ;
365 [label="Husband_Occupation <= 1.5\ngini = 0.408\nsamples = 7\nvalue = [2, 5]\nclass = Yes"] ;
363 -> 365 ;
366 [label="Wife_age <= 26.5\ngini = 0.444\nsamples = 3\nvalue = [2, 1]\nclass = No"] ;
365 -> 366 ;
367 [label="gini = 0.0\nsamples = 2\nvalue = [2, 0]\nclass = No"] ;
366 -> 367 ;
368 [label="gini = 0.0\nsamples = 1\nvalue = [0, 1]\nclass = Yes"] ;
366 -> 368 ;
369 [label="gini = 0.0\nsamples = 4\nvalue = [0, 4]\nclass = Yes"] ;
365 -> 369 ;
370 [label="Wife_age <= 27.5\ngini = 0.375\nsamples = 4\nvalue = [1, 3]\nclass = Yes"] ;
362 -> 370 ;
371 [label="gini = 0.0\nsamples = 3\nvalue = [0, 3]\nclass = Yes"] ;
370 -> 371 ;
372 [label="gini = 0.0\nsamples = 1\nvalue = [1, 0]\nclass = No"] ;
370 -> 372 ;
373 [label="gini = 0.0\nsamples = 6\nvalue = [0, 6]\nclass = Yes"] ;
359 -> 373 ;
374 [label="Standard_of_living_index <= 0.5\ngini = 0.133\nsamples = 14\nvalue = [1, 13]\nclass = Yes"] ;
358 -> 374 ;
375 [label="gini = 0.0\nsamples = 11\nvalue = [0, 11]\nclass = Yes"] ;
374 -> 375 ;
376 [label="Husband_Occupation <= 1.0\ngini = 0.444\nsamples = 3\nvalue = [1, 2]\nclass = Yes"] ;
374 -> 376 ;
377 [label="gini = 0.0\nsamples = 1\nvalue = [0, 1]\nclass = Yes"] ;
376 -> 377 ;
378 [label="gini = 0.5\nsamples = 2\nvalue = [1, 1]\nclass = No"] ;
376 -> 378 ;
379 [label="gini = 0.0\nsamples = 1\nvalue = [1, 0]\nclass = No"] ;
357 -> 379 ;
380 [label="Wife_age <= 20.5\ngini = 0.496\nsamples = 44\nvalue = [20, 24]\nclass = Yes"] ;
354 -> 380 ;
381 [label="gini = 0.0\nsamples = 2\nvalue = [2, 0]\nclass = No"] ;
380 -> 381 ;
382 [label="Husband_Occupation <= 0.5\ngini = 0.49\nsamples = 42\nvalue = [18, 24]\nclass = Yes"] ;
380 -> 382 ;
383 [label="Wife_education <= 1.5\ngini = 0.463\nsamples = 11\nvalue = [7, 4]\nclass = No"] ;
382 -> 383 ;
384 [label="Standard_of_living_index <= 2.5\ngini = 0.375\nsamples = 4\nvalue = [1, 3]\nclass = Yes"] ;
383 -> 384 ;
385 [label="gini = 0.0\nsamples = 3\nvalue = [0, 3]\nclass = Yes"] ;
384 -> 385 ;
386 [label="gini = 0.0\nsamples = 1\nvalue = [1, 0]\nclass = No"] ;
384 -> 386 ;
387 [label="Wife_age <= 26.0\ngini = 0.245\nsamples = 7\nvalue = [6, 1]\nclass = No"] ;
383 -> 387 ;
388 [label="No_of_children_born <= 3.5\ngini = 0.5\nsamples = 2\nvalue = [1, 1]\nclass = No"] ;
387 -> 388 ;
389 [label="gini = 0.0\nsamples = 1\nvalue = [0, 1]\nclass = Yes"] ;
388 -> 389 ;
390 [label="gini = 0.0\nsamples = 1\nvalue = [1, 0]\nclass = No"] ;
388 -> 390 ;
391 [label="gini = 0.0\nsamples = 5\nvalue = [5, 0]\nclass = No"] ;
387 -> 391 ;
392 [label="No_of_children_born <= 5.5\ngini = 0.458\nsamples = 31\nvalue = [11, 20]\nclass = Yes"] ;
382 -> 392 ;
393 [label="Wife_Working <= 0.5\ngini = 0.471\nsamples = 29\nvalue = [11, 18]\nclass = Yes"] ;
392 -> 393 ;
394 [label="Wife_age <= 24.5\ngini = 0.491\nsamples = 23\nvalue = [10, 13]\nclass = Yes"] ;
393 -> 394 ;
395 [label="Standard_of_living_index <= 2.5\ngini = 0.444\nsamples = 6\nvalue = [4, 2]\nclass = No"] ;
394 -> 395 ;
396 [label="gini = 0.0\nsamples = 3\nvalue = [3, 0]\nclass = No"] ;
395 -> 396 ;
397 [label="Husband_education <= 1.0\ngini = 0.444\nsamples = 3\nvalue = [1, 2]\nclass = Yes"] ;
395 -> 397 ;
398 [label="gini = 0.0\nsamples = 1\nvalue = [0, 1]\nclass = Yes"] ;
397 -> 398 ;
399 [label="Wife_age <= 23.5\ngini = 0.5\nsamples = 2\nvalue = [1, 1]\nclass = No"] ;
397 -> 399 ;
400 [label="gini = 0.0\nsamples = 1\nvalue = [1, 0]\nclass = No"] ;
399 -> 400 ;
401 [label="gini = 0.0\nsamples = 1\nvalue = [0, 1]\nclass = Yes"] ;
399 -> 401 ;
402 [label="Standard_of_living_index <= 2.5\ngini = 0.457\nsamples = 17\nvalue = [6, 11]\nclass = Yes"] ;
394 -> 402 ;
403 [label="Wife_age <= 27.5\ngini = 0.355\nsamples = 13\nvalue = [3, 10]\nclass = Yes"] ;
402 -> 403 ;
404 [label="Husband_Occupation <= 1.5\ngini = 0.469\nsamples = 8\nvalue = [3, 5]\nclass = Yes"] ;
403 -> 404 ;
405 [label="gini = 0.0\nsamples = 1\nvalue = [1, 0]\nclass = No"] ;
404 -> 405 ;
406 [label="Wife_education <= 0.5\ngini = 0.408\nsamples = 7\nvalue = [2, 5]\nclass = Yes"] ;
404 -> 406 ;
407 [label="Husband_Occupation <= 2.5\ngini = 0.5\nsamples = 4\nvalue = [2, 2]\nclass = No"] ;
406 -> 407 ;
408 [label="No_of_children_born <= 3.5\ngini = 0.444\nsamples = 3\nvalue = [2, 1]\nclass = No"] ;
407 -> 408 ;
409 [label="gini = 0.0\nsamples = 2\nvalue = [2, 0]\nclass = No"] ;
408 -> 409 ;
410 [label="gini = 0.0\nsamples = 1\nvalue = [0, 1]\nclass = Yes"] ;
408 -> 410 ;
411 [label="gini = 0.0\nsamples = 1\nvalue = [0, 1]\nclass = Yes"] ;
407 -> 411 ;
412 [label="gini = 0.0\nsamples = 3\nvalue = [0, 3]\nclass = Yes"] ;
406 -> 412 ;
413 [label="gini = 0.0\nsamples = 5\nvalue = [0, 5]\nclass = Yes"] ;
403 -> 413 ;
414 [label="Wife_age <= 26.5\ngini = 0.375\nsamples = 4\nvalue = [3, 1]\nclass = No"] ;
402 -> 414 ;
415 [label="gini = 0.0\nsamples = 1\nvalue = [0, 1]\nclass = Yes"] ;
414 -> 415 ;
416 [label="gini = 0.0\nsamples = 3\nvalue = [3, 0]\nclass = No"] ;
414 -> 416 ;
417 [label="Husband_education <= 1.5\ngini = 0.278\nsamples = 6\nvalue = [1, 5]\nclass = Yes"] ;
393 -> 417 ;
418 [label="Standard_of_living_index <= 2.5\ngini = 0.444\nsamples = 3\nvalue = [1, 2]\nclass = Yes"] ;
417 -> 418 ;
419 [label="Wife_age <= 27.0\ngini = 0.5\nsamples = 2\nvalue = [1, 1]\nclass = No"] ;
418 -> 419 ;
420 [label="gini = 0.0\nsamples = 1\nvalue = [1, 0]\nclass = No"] ;
419 -> 420 ;
421 [label="gini = 0.0\nsamples = 1\nvalue = [0, 1]\nclass = Yes"] ;
419 -> 421 ;
422 [label="gini = 0.0\nsamples = 1\nvalue = [0, 1]\nclass = Yes"] ;
418 -> 422 ;
423 [label="gini = 0.0\nsamples = 3\nvalue = [0, 3]\nclass = Yes"] ;
417 -> 423 ;
424 [label="gini = 0.0\nsamples = 2\nvalue = [0, 2]\nclass = Yes"] ;
392 -> 424 ;
425 [label="Media_exposure <= 0.5\ngini = 0.308\nsamples = 242\nvalue = [46, 196]\nclass = Yes"] ;
353 -> 425 ;
426 [label="Husband_Occupation <= 1.5\ngini = 0.288\nsamples = 224\nvalue = [39, 185]\nclass = Yes"] ;
425 -> 426 ;
427 [label="Wife_education <= 2.5\ngini = 0.373\nsamples = 117\nvalue = [29, 88]\nclass = Yes"] ;
426 -> 427 ;
428 [label="Standard_of_living_index <= 0.5\ngini = 0.354\nsamples = 113\nvalue = [26, 87]\nclass = Yes"] ;
427 -> 428 ;
429 [label="No_of_children_born <= 7.5\ngini = 0.464\nsamples = 30\nvalue = [11, 19]\nclass = Yes"] ;
428 -> 429 ;
430 [label="Wife_Working <= 0.5\ngini = 0.436\nsamples = 28\nvalue = [9, 19]\nclass = Yes"] ;
429 -> 430 ;
431 [label="No_of_children_born <= 4.5\ngini = 0.332\nsamples = 19\nvalue = [4, 15]\nclass = Yes"] ;
430 -> 431 ;
432 [label="Husband_education <= 1.5\ngini = 0.142\nsamples = 13\nvalue = [1, 12]\nclass = Yes"] ;
431 -> 432 ;
433 [label="Wife_age <= 35.0\ngini = 0.444\nsamples = 3\nvalue = [1, 2]\nclass = Yes"] ;
432 -> 433 ;
434 [label="gini = 0.0\nsamples = 2\nvalue = [0, 2]\nclass = Yes"] ;
433 -> 434 ;
435 [label="gini = 0.0\nsamples = 1\nvalue = [1, 0]\nclass = No"] ;
433 -> 435 ;
436 [label="gini = 0.0\nsamples = 10\nvalue = [0, 10]\nclass = Yes"] ;
432 -> 436 ;
437 [label="No_of_children_born <= 5.5\ngini = 0.5\nsamples = 6\nvalue = [3, 3]\nclass = No"] ;
431 -> 437 ;
438 [label="gini = 0.0\nsamples = 2\nvalue = [2, 0]\nclass = No"] ;
437 -> 438 ;
439 [label="Wife_age <= 34.5\ngini = 0.375\nsamples = 4\nvalue = [1, 3]\nclass = Yes"] ;
437 -> 439 ;
440 [label="Wife_age <= 33.0\ngini = 0.5\nsamples = 2\nvalue = [1, 1]\nclass = No"] ;
439 -> 440 ;
441 [label="gini = 0.0\nsamples = 1\nvalue = [0, 1]\nclass = Yes"] ;
440 -> 441 ;
442 [label="gini = 0.0\nsamples = 1\nvalue = [1, 0]\nclass = No"] ;
440 -> 442 ;
443 [label="gini = 0.0\nsamples = 2\nvalue = [0, 2]\nclass = Yes"] ;
439 -> 443 ;
444 [label="Wife_age <= 34.0\ngini = 0.494\nsamples = 9\nvalue = [5, 4]\nclass = No"] ;
430 -> 444 ;
445 [label="Wife_age <= 30.5\ngini = 0.408\nsamples = 7\nvalue = [5, 2]\nclass = No"] ;
444 -> 445 ;
446 [label="Wife_education <= 0.5\ngini = 0.444\nsamples = 3\nvalue = [1, 2]\nclass = Yes"] ;
445 -> 446 ;
447 [label="gini = 0.0\nsamples = 1\nvalue = [0, 1]\nclass = Yes"] ;
446 -> 447 ;
448 [label="gini = 0.5\nsamples = 2\nvalue = [1, 1]\nclass = No"] ;
446 -> 448 ;
449 [label="gini = 0.0\nsamples = 4\nvalue = [4, 0]\nclass = No"] ;
445 -> 449 ;
450 [label="gini = 0.0\nsamples = 2\nvalue = [0, 2]\nclass = Yes"] ;
444 -> 450 ;
451 [label="gini = 0.0\nsamples = 2\nvalue = [2, 0]\nclass = No"] ;
429 -> 451 ;
452 [label="Husband_education <= 1.5\ngini = 0.296\nsamples = 83\nvalue = [15, 68]\nclass = Yes"] ;
428 -> 452 ;
453 [label="Wife_religion <= 0.5\ngini = 0.111\nsamples = 17\nvalue = [1, 16]\nclass = Yes"] ;
452 -> 453 ;
454 [label="No_of_children_born <= 3.5\ngini = 0.5\nsamples = 2\nvalue = [1, 1]\nclass = No"] ;
453 -> 454 ;
455 [label="gini = 0.0\nsamples = 1\nvalue = [0, 1]\nclass = Yes"] ;
454 -> 455 ;
456 [label="gini = 0.0\nsamples = 1\nvalue = [1, 0]\nclass = No"] ;
454 -> 456 ;
457 [label="gini = 0.0\nsamples = 15\nvalue = [0, 15]\nclass = Yes"] ;
453 -> 457 ;
458 [label="Wife_education <= 1.5\ngini = 0.334\nsamples = 66\nvalue = [14, 52]\nclass = Yes"] ;
452 -> 458 ;
459 [label="Wife_Working <= 0.5\ngini = 0.432\nsamples = 19\nvalue = [6, 13]\nclass = Yes"] ;
458 -> 459 ;
460 [label="Standard_of_living_index <= 2.5\ngini = 0.18\nsamples = 10\nvalue = [1, 9]\nclass = Yes"] ;
459 -> 460 ;
461 [label="gini = 0.0\nsamples = 9\nvalue = [0, 9]\nclass = Yes"] ;
460 -> 461 ;
462 [label="gini = 0.0\nsamples = 1\nvalue = [1, 0]\nclass = No"] ;
460 -> 462 ;
463 [label="Husband_education <= 2.5\ngini = 0.494\nsamples = 9\nvalue = [5, 4]\nclass = No"] ;
459 -> 463 ;
464 [label="Wife_age <= 29.5\ngini = 0.469\nsamples = 8\nvalue = [5, 3]\nclass = No"] ;
463 -> 464 ;
465 [label="gini = 0.0\nsamples = 1\nvalue = [0, 1]\nclass = Yes"] ;
464 -> 465 ;
466 [label="No_of_children_born <= 4.5\ngini = 0.408\nsamples = 7\nvalue = [5, 2]\nclass = No"] ;
464 -> 466 ;
467 [label="Wife_age <= 33.0\ngini = 0.48\nsamples = 5\nvalue = [3, 2]\nclass = No"] ;
466 -> 467 ;
468 [label="gini = 0.0\nsamples = 2\nvalue = [2, 0]\nclass = No"] ;
467 -> 468 ;
469 [label="Wife_age <= 36.5\ngini = 0.444\nsamples = 3\nvalue = [1, 2]\nclass = Yes"] ;
467 -> 469 ;
470 [label="gini = 0.0\nsamples = 2\nvalue = [0, 2]\nclass = Yes"] ;
469 -> 470 ;
471 [label="gini = 0.0\nsamples = 1\nvalue = [1, 0]\nclass = No"] ;
469 -> 471 ;
472 [label="gini = 0.0\nsamples = 2\nvalue = [2, 0]\nclass = No"] ;
466 -> 472 ;
473 [label="gini = 0.0\nsamples = 1\nvalue = [0, 1]\nclass = Yes"] ;
463 -> 473 ;
474 [label="Wife_age <= 30.5\ngini = 0.282\nsamples = 47\nvalue = [8, 39]\nclass = Yes"] ;
458 -> 474 ;
475 [label="Husband_Occupation <= 0.5\ngini = 0.48\nsamples = 5\nvalue = [2, 3]\nclass = Yes"] ;
474 -> 475 ;
476 [label="gini = 0.0\nsamples = 2\nvalue = [0, 2]\nclass = Yes"] ;
475 -> 476 ;
477 [label="Standard_of_living_index <= 2.5\ngini = 0.444\nsamples = 3\nvalue = [2, 1]\nclass = No"] ;
475 -> 477 ;
478 [label="gini = 0.0\nsamples = 2\nvalue = [2, 0]\nclass = No"] ;
477 -> 478 ;
479 [label="gini = 0.0\nsamples = 1\nvalue = [0, 1]\nclass = Yes"] ;
477 -> 479 ;
480 [label="Husband_Occupation <= 0.5\ngini = 0.245\nsamples = 42\nvalue = [6, 36]\nclass = Yes"] ;
474 -> 480 ;
481 [label="Wife_Working <= 0.5\ngini = 0.355\nsamples = 26\nvalue = [6, 20]\nclass = Yes"] ;
480 -> 481 ;
482 [label="Wife_religion <= 0.5\ngini = 0.457\nsamples = 17\nvalue = [6, 11]\nclass = Yes"] ;
481 -> 482 ;
483 [label="No_of_children_born <= 3.5\ngini = 0.444\nsamples = 3\nvalue = [2, 1]\nclass = No"] ;
482 -> 483 ;
484 [label="gini = 0.0\nsamples = 2\nvalue = [2, 0]\nclass = No"] ;
483 -> 484 ;
485 [label="gini = 0.0\nsamples = 1\nvalue = [0, 1]\nclass = Yes"] ;
483 -> 485 ;
486 [label="Wife_age <= 32.5\ngini = 0.408\nsamples = 14\nvalue = [4, 10]\nclass = Yes"] ;
482 -> 486 ;
487 [label="gini = 0.0\nsamples = 2\nvalue = [0, 2]\nclass = Yes"] ;
486 -> 487 ;
488 [label="Wife_age <= 33.5\ngini = 0.444\nsamples = 12\nvalue = [4, 8]\nclass = Yes"] ;
486 -> 488 ;
489 [label="gini = 0.0\nsamples = 1\nvalue = [1, 0]\nclass = No"] ;
488 -> 489 ;
490 [label="Wife_age <= 36.5\ngini = 0.397\nsamples = 11\nvalue = [3, 8]\nclass = Yes"] ;
488 -> 490 ;
491 [label="Wife_age <= 34.5\ngini = 0.444\nsamples = 9\nvalue = [3, 6]\nclass = Yes"] ;
490 -> 491 ;
492 [label="gini = 0.0\nsamples = 1\nvalue = [0, 1]\nclass = Yes"] ;
491 -> 492 ;
493 [label="No_of_children_born <= 4.5\ngini = 0.469\nsamples = 8\nvalue = [3, 5]\nclass = Yes"] ;
491 -> 493 ;
494 [label="Wife_age <= 35.5\ngini = 0.444\nsamples = 6\nvalue = [2, 4]\nclass = Yes"] ;
493 -> 494 ;
495 [label="No_of_children_born <= 3.5\ngini = 0.444\nsamples = 3\nvalue = [1, 2]\nclass = Yes"] ;
494 -> 495 ;
496 [label="gini = 0.5\nsamples = 2\nvalue = [1, 1]\nclass = No"] ;
495 -> 496 ;
497 [label="gini = 0.0\nsamples = 1\nvalue = [0, 1]\nclass = Yes"] ;
495 -> 497 ;
498 [label="No_of_children_born <= 3.5\ngini = 0.444\nsamples = 3\nvalue = [1, 2]\nclass = Yes"] ;
494 -> 498 ;
499 [label="gini = 0.0\nsamples = 1\nvalue = [0, 1]\nclass = Yes"] ;
498 -> 499 ;
500 [label="gini = 0.5\nsamples = 2\nvalue = [1, 1]\nclass = No"] ;
498 -> 500 ;
501 [label="gini = 0.5\nsamples = 2\nvalue = [1, 1]\nclass = No"] ;
493 -> 501 ;
502 [label="gini = 0.0\nsamples = 2\nvalue = [0, 2]\nclass = Yes"] ;
490 -> 502 ;
503 [label="gini = 0.0\nsamples = 9\nvalue = [0, 9]\nclass = Yes"] ;
481 -> 503 ;
504 [label="gini = 0.0\nsamples = 16\nvalue = [0, 16]\nclass = Yes"] ;
480 -> 504 ;
505 [label="Wife_Working <= 0.5\ngini = 0.375\nsamples = 4\nvalue = [3, 1]\nclass = No"] ;
427 -> 505 ;
506 [label="gini = 0.0\nsamples = 3\nvalue = [3, 0]\nclass = No"] ;
505 -> 506 ;
507 [label="gini = 0.0\nsamples = 1\nvalue = [0, 1]\nclass = Yes"] ;
505 -> 507 ;
508 [label="Husband_education <= 1.5\ngini = 0.169\nsamples = 107\nvalue = [10, 97]\nclass = Yes"] ;
426 -> 508 ;
509 [label="No_of_children_born <= 3.5\ngini = 0.274\nsamples = 55\nvalue = [9, 46]\nclass = Yes"] ;
508 -> 509 ;
510 [label="Wife_age <= 33.5\ngini = 0.444\nsamples = 12\nvalue = [4, 8]\nclass = Yes"] ;
509 -> 510 ;
511 [label="Standard_of_living_index <= 1.5\ngini = 0.32\nsamples = 10\nvalue = [2, 8]\nclass = Yes"] ;
510 -> 511 ;
512 [label="gini = 0.0\nsamples = 7\nvalue = [0, 7]\nclass = Yes"] ;
511 -> 512 ;
513 [label="Standard_of_living_index <= 2.5\ngini = 0.444\nsamples = 3\nvalue = [2, 1]\nclass = No"] ;
511 -> 513 ;
514 [label="gini = 0.0\nsamples = 1\nvalue = [1, 0]\nclass = No"] ;
513 -> 514 ;
515 [label="Wife_education <= 0.5\ngini = 0.5\nsamples = 2\nvalue = [1, 1]\nclass = No"] ;
513 -> 515 ;
516 [label="gini = 0.0\nsamples = 1\nvalue = [1, 0]\nclass = No"] ;
515 -> 516 ;
517 [label="gini = 0.0\nsamples = 1\nvalue = [0, 1]\nclass = Yes"] ;
515 -> 517 ;
518 [label="gini = 0.0\nsamples = 2\nvalue = [2, 0]\nclass = No"] ;
510 -> 518 ;
519 [label="Wife_age <= 35.5\ngini = 0.206\nsamples = 43\nvalue = [5, 38]\nclass = Yes"] ;
509 -> 519 ;
520 [label="Standard_of_living_index <= 0.5\ngini = 0.153\nsamples = 36\nvalue = [3, 33]\nclass = Yes"] ;
519 -> 520 ;
521 [label="Wife_education <= 0.5\ngini = 0.26\nsamples = 13\nvalue = [2, 11]\nclass = Yes"] ;
520 -> 521 ;
522 [label="Wife_age <= 30.5\ngini = 0.444\nsamples = 6\nvalue = [2, 4]\nclass = Yes"] ;
521 -> 522 ;
523 [label="gini = 0.0\nsamples = 1\nvalue = [0, 1]\nclass = Yes"] ;
522 -> 523 ;
524 [label="Wife_age <= 34.5\ngini = 0.48\nsamples = 5\nvalue = [2, 3]\nclass = Yes"] ;
522 -> 524 ;
525 [label="Wife_Working <= 0.5\ngini = 0.5\nsamples = 4\nvalue = [2, 2]\nclass = No"] ;
524 -> 525 ;
526 [label="Husband_education <= 0.5\ngini = 0.444\nsamples = 3\nvalue = [1, 2]\nclass = Yes"] ;
525 -> 526 ;
527 [label="gini = 0.5\nsamples = 2\nvalue = [1, 1]\nclass = No"] ;
526 -> 527 ;
528 [label="gini = 0.0\nsamples = 1\nvalue = [0, 1]\nclass = Yes"] ;
526 -> 528 ;
529 [label="gini = 0.0\nsamples = 1\nvalue = [1, 0]\nclass = No"] ;
525 -> 529 ;
530 [label="gini = 0.0\nsamples = 1\nvalue = [0, 1]\nclass = Yes"] ;
524 -> 530 ;
531 [label="gini = 0.0\nsamples = 7\nvalue = [0, 7]\nclass = Yes"] ;
521 -> 531 ;
532 [label="Wife_age <= 31.0\ngini = 0.083\nsamples = 23\nvalue = [1, 22]\nclass = Yes"] ;
520 -> 532 ;
533 [label="Wife_Working <= 0.5\ngini = 0.219\nsamples = 8\nvalue = [1, 7]\nclass = Yes"] ;
532 -> 533 ;
534 [label="gini = 0.0\nsamples = 6\nvalue = [0, 6]\nclass = Yes"] ;
533 -> 534 ;
535 [label="Standard_of_living_index <= 1.5\ngini = 0.5\nsamples = 2\nvalue = [1, 1]\nclass = No"] ;
533 -> 535 ;
536 [label="gini = 0.0\nsamples = 1\nvalue = [0, 1]\nclass = Yes"] ;
535 -> 536 ;
537 [label="gini = 0.0\nsamples = 1\nvalue = [1, 0]\nclass = No"] ;
535 -> 537 ;
538 [label="gini = 0.0\nsamples = 15\nvalue = [0, 15]\nclass = Yes"] ;
532 -> 538 ;
539 [label="Wife_Working <= 0.5\ngini = 0.408\nsamples = 7\nvalue = [2, 5]\nclass = Yes"] ;
519 -> 539 ;
540 [label="No_of_children_born <= 7.5\ngini = 0.278\nsamples = 6\nvalue = [1, 5]\nclass = Yes"] ;
539 -> 540 ;
541 [label="gini = 0.0\nsamples = 4\nvalue = [0, 4]\nclass = Yes"] ;
540 -> 541 ;
542 [label="No_of_children_born <= 8.5\ngini = 0.5\nsamples = 2\nvalue = [1, 1]\nclass = No"] ;
540 -> 542 ;
543 [label="gini = 0.0\nsamples = 1\nvalue = [1, 0]\nclass = No"] ;
542 -> 543 ;
544 [label="gini = 0.0\nsamples = 1\nvalue = [0, 1]\nclass = Yes"] ;
542 -> 544 ;
545 [label="gini = 0.0\nsamples = 1\nvalue = [1, 0]\nclass = No"] ;
539 -> 545 ;
546 [label="Wife_education <= 0.5\ngini = 0.038\nsamples = 52\nvalue = [1, 51]\nclass = Yes"] ;
508 -> 546 ;
547 [label="No_of_children_born <= 4.5\ngini = 0.198\nsamples = 9\nvalue = [1, 8]\nclass = Yes"] ;
546 -> 547 ;
548 [label="gini = 0.0\nsamples = 5\nvalue = [0, 5]\nclass = Yes"] ;
547 -> 548 ;
549 [label="No_of_children_born <= 5.5\ngini = 0.375\nsamples = 4\nvalue = [1, 3]\nclass = Yes"] ;
547 -> 549 ;
550 [label="gini = 0.0\nsamples = 1\nvalue = [1, 0]\nclass = No"] ;
549 -> 550 ;
551 [label="gini = 0.0\nsamples = 3\nvalue = [0, 3]\nclass = Yes"] ;
549 -> 551 ;
552 [label="gini = 0.0\nsamples = 43\nvalue = [0, 43]\nclass = Yes"] ;
546 -> 552 ;
553 [label="Husband_Occupation <= 1.5\ngini = 0.475\nsamples = 18\nvalue = [7, 11]\nclass = Yes"] ;
425 -> 553 ;
554 [label="Wife_religion <= 0.5\ngini = 0.245\nsamples = 7\nvalue = [1, 6]\nclass = Yes"] ;
553 -> 554 ;
555 [label="gini = 0.0\nsamples = 1\nvalue = [1, 0]\nclass = No"] ;
554 -> 555 ;
556 [label="gini = 0.0\nsamples = 6\nvalue = [0, 6]\nclass = Yes"] ;
554 -> 556 ;
557 [label="No_of_children_born <= 3.5\ngini = 0.496\nsamples = 11\nvalue = [6, 5]\nclass = No"] ;
553 -> 557 ;
558 [label="gini = 0.0\nsamples = 2\nvalue = [0, 2]\nclass = Yes"] ;
557 -> 558 ;
559 [label="Wife_age <= 31.0\ngini = 0.444\nsamples = 9\nvalue = [6, 3]\nclass = No"] ;
557 -> 559 ;
560 [label="gini = 0.0\nsamples = 1\nvalue = [0, 1]\nclass = Yes"] ;
559 -> 560 ;
561 [label="Wife_education <= 2.0\ngini = 0.375\nsamples = 8\nvalue = [6, 2]\nclass = No"] ;
559 -> 561 ;
562 [label="gini = 0.0\nsamples = 4\nvalue = [4, 0]\nclass = No"] ;
561 -> 562 ;
563 [label="No_of_children_born <= 4.5\ngini = 0.5\nsamples = 4\nvalue = [2, 2]\nclass = No"] ;
561 -> 563 ;
564 [label="Standard_of_living_index <= 1.5\ngini = 0.444\nsamples = 3\nvalue = [1, 2]\nclass = Yes"] ;
563 -> 564 ;
565 [label="gini = 0.0\nsamples = 1\nvalue = [1, 0]\nclass = No"] ;
564 -> 565 ;
566 [label="gini = 0.0\nsamples = 2\nvalue = [0, 2]\nclass = Yes"] ;
564 -> 566 ;
567 [label="gini = 0.0\nsamples = 1\nvalue = [1, 0]\nclass = No"] ;
563 -> 567 ;
568 [label="Wife_education <= 2.5\ngini = 0.499\nsamples = 239\nvalue = [126, 113]\nclass = No"] ;
194 -> 568 ;
569 [label="Wife_education <= 1.5\ngini = 0.495\nsamples = 192\nvalue = [86, 106]\nclass = Yes"] ;
568 -> 569 ;
570 [label="Wife_education <= 0.5\ngini = 0.461\nsamples = 100\nvalue = [64, 36]\nclass = No"] ;
569 -> 570 ;
571 [label="No_of_children_born <= 6.5\ngini = 0.369\nsamples = 41\nvalue = [31, 10]\nclass = No"] ;
570 -> 571 ;
572 [label="Wife_age <= 46.5\ngini = 0.293\nsamples = 28\nvalue = [23, 5]\nclass = No"] ;
571 -> 572 ;
573 [label="Wife_age <= 45.5\ngini = 0.375\nsamples = 20\nvalue = [15, 5]\nclass = No"] ;
572 -> 573 ;
574 [label="Husband_education <= 0.5\ngini = 0.332\nsamples = 19\nvalue = [15, 4]\nclass = No"] ;
573 -> 574 ;
575 [label="gini = 0.0\nsamples = 5\nvalue = [5, 0]\nclass = No"] ;
574 -> 575 ;
576 [label="Wife_age <= 42.5\ngini = 0.408\nsamples = 14\nvalue = [10, 4]\nclass = No"] ;
574 -> 576 ;
577 [label="Husband_education <= 1.5\ngini = 0.494\nsamples = 9\nvalue = [5, 4]\nclass = No"] ;
576 -> 577 ;
578 [label="Wife_age <= 41.0\ngini = 0.375\nsamples = 4\nvalue = [1, 3]\nclass = Yes"] ;
577 -> 578 ;
579 [label="gini = 0.0\nsamples = 3\nvalue = [0, 3]\nclass = Yes"] ;
578 -> 579 ;
580 [label="gini = 0.0\nsamples = 1\nvalue = [1, 0]\nclass = No"] ;
578 -> 580 ;
581 [label="Wife_religion <= 0.5\ngini = 0.32\nsamples = 5\nvalue = [4, 1]\nclass = No"] ;
577 -> 581 ;
582 [label="Standard_of_living_index <= 0.5\ngini = 0.5\nsamples = 2\nvalue = [1, 1]\nclass = No"] ;
581 -> 582 ;
583 [label="gini = 0.0\nsamples = 1\nvalue = [0, 1]\nclass = Yes"] ;
582 -> 583 ;
584 [label="gini = 0.0\nsamples = 1\nvalue = [1, 0]\nclass = No"] ;
582 -> 584 ;
585 [label="gini = 0.0\nsamples = 3\nvalue = [3, 0]\nclass = No"] ;
581 -> 585 ;
586 [label="gini = 0.0\nsamples = 5\nvalue = [5, 0]\nclass = No"] ;
576 -> 586 ;
587 [label="gini = 0.0\nsamples = 1\nvalue = [0, 1]\nclass = Yes"] ;
573 -> 587 ;
588 [label="gini = 0.0\nsamples = 8\nvalue = [8, 0]\nclass = No"] ;
572 -> 588 ;
589 [label="Husband_Occupation <= 1.5\ngini = 0.473\nsamples = 13\nvalue = [8, 5]\nclass = No"] ;
571 -> 589 ;
590 [label="Wife_age <= 47.5\ngini = 0.49\nsamples = 7\nvalue = [3, 4]\nclass = Yes"] ;
589 -> 590 ;
591 [label="Standard_of_living_index <= 1.5\ngini = 0.444\nsamples = 6\nvalue = [2, 4]\nclass = Yes"] ;
590 -> 591 ;
592 [label="No_of_children_born <= 9.0\ngini = 0.5\nsamples = 4\nvalue = [2, 2]\nclass = No"] ;
591 -> 592 ;
593 [label="Wife_age <= 39.0\ngini = 0.444\nsamples = 3\nvalue = [2, 1]\nclass = No"] ;
592 -> 593 ;
594 [label="gini = 0.0\nsamples = 1\nvalue = [0, 1]\nclass = Yes"] ;
593 -> 594 ;
595 [label="gini = 0.0\nsamples = 2\nvalue = [2, 0]\nclass = No"] ;
593 -> 595 ;
596 [label="gini = 0.0\nsamples = 1\nvalue = [0, 1]\nclass = Yes"] ;
592 -> 596 ;
597 [label="gini = 0.0\nsamples = 2\nvalue = [0, 2]\nclass = Yes"] ;
591 -> 597 ;
598 [label="gini = 0.0\nsamples = 1\nvalue = [1, 0]\nclass = No"] ;
590 -> 598 ;
599 [label="No_of_children_born <= 7.5\ngini = 0.278\nsamples = 6\nvalue = [5, 1]\nclass = No"] ;
589 -> 599 ;
600 [label="Wife_age <= 42.5\ngini = 0.5\nsamples = 2\nvalue = [1, 1]\nclass = No"] ;
599 -> 600 ;
601 [label="gini = 0.0\nsamples = 1\nvalue = [0, 1]\nclass = Yes"] ;
600 -> 601 ;
602 [label="gini = 0.0\nsamples = 1\nvalue = [1, 0]\nclass = No"] ;
600 -> 602 ;
603 [label="gini = 0.0\nsamples = 4\nvalue = [4, 0]\nclass = No"] ;
599 -> 603 ;
604 [label="Husband_education <= 0.5\ngini = 0.493\nsamples = 59\nvalue = [33, 26]\nclass = No"] ;
570 -> 604 ;
605 [label="gini = 0.0\nsamples = 3\nvalue = [3, 0]\nclass = No"] ;
604 -> 605 ;
606 [label="Wife_age <= 38.5\ngini = 0.497\nsamples = 56\nvalue = [30, 26]\nclass = No"] ;
604 -> 606 ;
607 [label="No_of_children_born <= 6.0\ngini = 0.278\nsamples = 6\nvalue = [5, 1]\nclass = No"] ;
606 -> 607 ;
608 [label="gini = 0.0\nsamples = 4\nvalue = [4, 0]\nclass = No"] ;
607 -> 608 ;
609 [label="Husband_Occupation <= 1.5\ngini = 0.5\nsamples = 2\nvalue = [1, 1]\nclass = No"] ;
607 -> 609 ;
610 [label="gini = 0.0\nsamples = 1\nvalue = [0, 1]\nclass = Yes"] ;
609 -> 610 ;
611 [label="gini = 0.0\nsamples = 1\nvalue = [1, 0]\nclass = No"] ;
609 -> 611 ;
612 [label="No_of_children_born <= 3.5\ngini = 0.5\nsamples = 50\nvalue = [25, 25]\nclass = No"] ;
606 -> 612 ;
613 [label="Standard_of_living_index <= 0.5\ngini = 0.469\nsamples = 16\nvalue = [10, 6]\nclass = No"] ;
612 -> 613 ;
614 [label="No_of_children_born <= 2.5\ngini = 0.375\nsamples = 4\nvalue = [1, 3]\nclass = Yes"] ;
613 -> 614 ;
615 [label="gini = 0.0\nsamples = 2\nvalue = [0, 2]\nclass = Yes"] ;
614 -> 615 ;
616 [label="Wife_age <= 47.5\ngini = 0.5\nsamples = 2\nvalue = [1, 1]\nclass = No"] ;
614 -> 616 ;
617 [label="gini = 0.0\nsamples = 1\nvalue = [1, 0]\nclass = No"] ;
616 -> 617 ;
618 [label="gini = 0.0\nsamples = 1\nvalue = [0, 1]\nclass = Yes"] ;
616 -> 618 ;
619 [label="Wife_age <= 43.5\ngini = 0.375\nsamples = 12\nvalue = [9, 3]\nclass = No"] ;
613 -> 619 ;
620 [label="Husband_education <= 1.5\ngini = 0.49\nsamples = 7\nvalue = [4, 3]\nclass = No"] ;
619 -> 620 ;
621 [label="gini = 0.0\nsamples = 3\nvalue = [3, 0]\nclass = No"] ;
620 -> 621 ;
622 [label="Husband_Occupation <= 1.5\ngini = 0.375\nsamples = 4\nvalue = [1, 3]\nclass = Yes"] ;
620 -> 622 ;
623 [label="gini = 0.0\nsamples = 2\nvalue = [0, 2]\nclass = Yes"] ;
622 -> 623 ;
624 [label="Wife_age <= 41.5\ngini = 0.5\nsamples = 2\nvalue = [1, 1]\nclass = No"] ;
622 -> 624 ;
625 [label="gini = 0.0\nsamples = 1\nvalue = [0, 1]\nclass = Yes"] ;
624 -> 625 ;
626 [label="gini = 0.0\nsamples = 1\nvalue = [1, 0]\nclass = No"] ;
624 -> 626 ;
627 [label="gini = 0.0\nsamples = 5\nvalue = [5, 0]\nclass = No"] ;
619 -> 627 ;
628 [label="Wife_religion <= 0.5\ngini = 0.493\nsamples = 34\nvalue = [15, 19]\nclass = Yes"] ;
612 -> 628 ;
629 [label="gini = 0.0\nsamples = 2\nvalue = [0, 2]\nclass = Yes"] ;
628 -> 629 ;
630 [label="Husband_education <= 2.5\ngini = 0.498\nsamples = 32\nvalue = [15, 17]\nclass = Yes"] ;
628 -> 630 ;
631 [label="Standard_of_living_index <= 2.5\ngini = 0.495\nsamples = 31\nvalue = [14, 17]\nclass = Yes"] ;
630 -> 631 ;
632 [label="Media_exposure <= 0.5\ngini = 0.498\nsamples = 30\nvalue = [14, 16]\nclass = Yes"] ;
631 -> 632 ;
633 [label="Standard_of_living_index <= 1.5\ngini = 0.499\nsamples = 29\nvalue = [14, 15]\nclass = Yes"] ;
632 -> 633 ;
634 [label="Husband_Occupation <= 0.5\ngini = 0.49\nsamples = 14\nvalue = [8, 6]\nclass = No"] ;
633 -> 634 ;
635 [label="Wife_age <= 42.5\ngini = 0.375\nsamples = 4\nvalue = [1, 3]\nclass = Yes"] ;
634 -> 635 ;
636 [label="gini = 0.0\nsamples = 3\nvalue = [0, 3]\nclass = Yes"] ;
635 -> 636 ;
637 [label="gini = 0.0\nsamples = 1\nvalue = [1, 0]\nclass = No"] ;
635 -> 637 ;
638 [label="Wife_age <= 42.5\ngini = 0.42\nsamples = 10\nvalue = [7, 3]\nclass = No"] ;
634 -> 638 ;
639 [label="gini = 0.0\nsamples = 5\nvalue = [5, 0]\nclass = No"] ;
638 -> 639 ;
640 [label="Wife_Working <= 0.5\ngini = 0.48\nsamples = 5\nvalue = [2, 3]\nclass = Yes"] ;
638 -> 640 ;
641 [label="No_of_children_born <= 7.0\ngini = 0.444\nsamples = 3\nvalue = [2, 1]\nclass = No"] ;
640 -> 641 ;
642 [label="gini = 0.0\nsamples = 1\nvalue = [0, 1]\nclass = Yes"] ;
641 -> 642 ;
643 [label="gini = 0.0\nsamples = 2\nvalue = [2, 0]\nclass = No"] ;
641 -> 643 ;
644 [label="gini = 0.0\nsamples = 2\nvalue = [0, 2]\nclass = Yes"] ;
640 -> 644 ;
645 [label="Husband_Occupation <= 1.5\ngini = 0.48\nsamples = 15\nvalue = [6, 9]\nclass = Yes"] ;
633 -> 645 ;
646 [label="Wife_age <= 42.5\ngini = 0.494\nsamples = 9\nvalue = [5, 4]\nclass = No"] ;
645 -> 646 ;
647 [label="gini = 0.0\nsamples = 2\nvalue = [0, 2]\nclass = Yes"] ;
646 -> 647 ;
648 [label="No_of_children_born <= 7.0\ngini = 0.408\nsamples = 7\nvalue = [5, 2]\nclass = No"] ;
646 -> 648 ;
649 [label="gini = 0.0\nsamples = 4\nvalue = [4, 0]\nclass = No"] ;
648 -> 649 ;
650 [label="Husband_education <= 1.5\ngini = 0.444\nsamples = 3\nvalue = [1, 2]\nclass = Yes"] ;
648 -> 650 ;
651 [label="gini = 0.0\nsamples = 1\nvalue = [0, 1]\nclass = Yes"] ;
650 -> 651 ;
652 [label="No_of_children_born <= 9.0\ngini = 0.5\nsamples = 2\nvalue = [1, 1]\nclass = No"] ;
650 -> 652 ;
653 [label="gini = 0.0\nsamples = 1\nvalue = [0, 1]\nclass = Yes"] ;
652 -> 653 ;
654 [label="gini = 0.0\nsamples = 1\nvalue = [1, 0]\nclass = No"] ;
652 -> 654 ;
655 [label="Husband_education <= 1.5\ngini = 0.278\nsamples = 6\nvalue = [1, 5]\nclass = Yes"] ;
645 -> 655 ;
656 [label="Wife_age <= 43.0\ngini = 0.5\nsamples = 2\nvalue = [1, 1]\nclass = No"] ;
655 -> 656 ;
657 [label="gini = 0.0\nsamples = 1\nvalue = [1, 0]\nclass = No"] ;
656 -> 657 ;
658 [label="gini = 0.0\nsamples = 1\nvalue = [0, 1]\nclass = Yes"] ;
656 -> 658 ;
659 [label="gini = 0.0\nsamples = 4\nvalue = [0, 4]\nclass = Yes"] ;
655 -> 659 ;
660 [label="gini = 0.0\nsamples = 1\nvalue = [0, 1]\nclass = Yes"] ;
632 -> 660 ;
661 [label="gini = 0.0\nsamples = 1\nvalue = [0, 1]\nclass = Yes"] ;
631 -> 661 ;
662 [label="gini = 0.0\nsamples = 1\nvalue = [1, 0]\nclass = No"] ;
630 -> 662 ;
663 [label="Wife_age <= 39.5\ngini = 0.364\nsamples = 92\nvalue = [22, 70]\nclass = Yes"] ;
569 -> 663 ;
664 [label="No_of_children_born <= 2.5\ngini = 0.1\nsamples = 19\nvalue = [1, 18]\nclass = Yes"] ;
663 -> 664 ;
665 [label="Wife_Working <= 0.5\ngini = 0.278\nsamples = 6\nvalue = [1, 5]\nclass = Yes"] ;
664 -> 665 ;
666 [label="gini = 0.0\nsamples = 4\nvalue = [0, 4]\nclass = Yes"] ;
665 -> 666 ;
667 [label="Wife_age <= 38.5\ngini = 0.5\nsamples = 2\nvalue = [1, 1]\nclass = No"] ;
665 -> 667 ;
668 [label="gini = 0.0\nsamples = 1\nvalue = [0, 1]\nclass = Yes"] ;
667 -> 668 ;
669 [label="gini = 0.0\nsamples = 1\nvalue = [1, 0]\nclass = No"] ;
667 -> 669 ;
670 [label="gini = 0.0\nsamples = 13\nvalue = [0, 13]\nclass = Yes"] ;
664 -> 670 ;
671 [label="No_of_children_born <= 3.5\ngini = 0.41\nsamples = 73\nvalue = [21, 52]\nclass = Yes"] ;
663 -> 671 ;
672 [label="Husband_Occupation <= 0.5\ngini = 0.494\nsamples = 18\nvalue = [10, 8]\nclass = No"] ;
671 -> 672 ;
673 [label="Wife_age <= 42.5\ngini = 0.49\nsamples = 14\nvalue = [6, 8]\nclass = Yes"] ;
672 -> 673 ;
674 [label="Wife_age <= 40.5\ngini = 0.444\nsamples = 6\nvalue = [4, 2]\nclass = No"] ;
673 -> 674 ;
675 [label="No_of_children_born <= 2.5\ngini = 0.444\nsamples = 3\nvalue = [1, 2]\nclass = Yes"] ;
674 -> 675 ;
676 [label="Wife_Working <= 0.5\ngini = 0.5\nsamples = 2\nvalue = [1, 1]\nclass = No"] ;
675 -> 676 ;
677 [label="gini = 0.0\nsamples = 1\nvalue = [1, 0]\nclass = No"] ;
676 -> 677 ;
678 [label="gini = 0.0\nsamples = 1\nvalue = [0, 1]\nclass = Yes"] ;
676 -> 678 ;
679 [label="gini = 0.0\nsamples = 1\nvalue = [0, 1]\nclass = Yes"] ;
675 -> 679 ;
680 [label="gini = 0.0\nsamples = 3\nvalue = [3, 0]\nclass = No"] ;
674 -> 680 ;
681 [label="Media_exposure <= 0.5\ngini = 0.375\nsamples = 8\nvalue = [2, 6]\nclass = Yes"] ;
673 -> 681 ;
682 [label="No_of_children_born <= 2.5\ngini = 0.245\nsamples = 7\nvalue = [1, 6]\nclass = Yes"] ;
681 -> 682 ;
683 [label="Wife_age <= 45.0\ngini = 0.5\nsamples = 2\nvalue = [1, 1]\nclass = No"] ;
682 -> 683 ;
684 [label="gini = 0.0\nsamples = 1\nvalue = [0, 1]\nclass = Yes"] ;
683 -> 684 ;
685 [label="gini = 0.0\nsamples = 1\nvalue = [1, 0]\nclass = No"] ;
683 -> 685 ;
686 [label="gini = 0.0\nsamples = 5\nvalue = [0, 5]\nclass = Yes"] ;
682 -> 686 ;
687 [label="gini = 0.0\nsamples = 1\nvalue = [1, 0]\nclass = No"] ;
681 -> 687 ;
688 [label="gini = 0.0\nsamples = 4\nvalue = [4, 0]\nclass = No"] ;
672 -> 688 ;
689 [label="Wife_age <= 42.5\ngini = 0.32\nsamples = 55\nvalue = [11, 44]\nclass = Yes"] ;
671 -> 689 ;
690 [label="gini = 0.0\nsamples = 19\nvalue = [0, 19]\nclass = Yes"] ;
689 -> 690 ;
691 [label="Standard_of_living_index <= 1.5\ngini = 0.424\nsamples = 36\nvalue = [11, 25]\nclass = Yes"] ;
689 -> 691 ;
692 [label="No_of_children_born <= 7.5\ngini = 0.5\nsamples = 12\nvalue = [6, 6]\nclass = No"] ;
691 -> 692 ;
693 [label="Wife_age <= 48.0\ngini = 0.48\nsamples = 10\nvalue = [4, 6]\nclass = Yes"] ;
692 -> 693 ;
694 [label="Wife_age <= 43.5\ngini = 0.375\nsamples = 8\nvalue = [2, 6]\nclass = Yes"] ;
693 -> 694 ;
695 [label="gini = 0.0\nsamples = 1\nvalue = [1, 0]\nclass = No"] ;
694 -> 695 ;
696 [label="Wife_age <= 44.5\ngini = 0.245\nsamples = 7\nvalue = [1, 6]\nclass = Yes"] ;
694 -> 696 ;
697 [label="gini = 0.0\nsamples = 4\nvalue = [0, 4]\nclass = Yes"] ;
696 -> 697 ;
698 [label="Wife_age <= 46.0\ngini = 0.444\nsamples = 3\nvalue = [1, 2]\nclass = Yes"] ;
696 -> 698 ;
699 [label="gini = 0.0\nsamples = 1\nvalue = [1, 0]\nclass = No"] ;
698 -> 699 ;
700 [label="gini = 0.0\nsamples = 2\nvalue = [0, 2]\nclass = Yes"] ;
698 -> 700 ;
701 [label="gini = 0.0\nsamples = 2\nvalue = [2, 0]\nclass = No"] ;
693 -> 701 ;
702 [label="gini = 0.0\nsamples = 2\nvalue = [2, 0]\nclass = No"] ;
692 -> 702 ;
703 [label="Husband_Occupation <= 1.5\ngini = 0.33\nsamples = 24\nvalue = [5, 19]\nclass = Yes"] ;
691 -> 703 ;
704 [label="No_of_children_born <= 6.5\ngini = 0.287\nsamples = 23\nvalue = [4, 19]\nclass = Yes"] ;
703 -> 704 ;
705 [label="Wife_Working <= 0.5\ngini = 0.408\nsamples = 14\nvalue = [4, 10]\nclass = Yes"] ;
704 -> 705 ;
706 [label="Wife_age <= 43.5\ngini = 0.463\nsamples = 11\nvalue = [4, 7]\nclass = Yes"] ;
705 -> 706 ;
707 [label="gini = 0.0\nsamples = 2\nvalue = [0, 2]\nclass = Yes"] ;
706 -> 707 ;
708 [label="No_of_children_born <= 4.5\ngini = 0.494\nsamples = 9\nvalue = [4, 5]\nclass = Yes"] ;
706 -> 708 ;
709 [label="Wife_age <= 46.5\ngini = 0.32\nsamples = 5\nvalue = [1, 4]\nclass = Yes"] ;
708 -> 709 ;
710 [label="gini = 0.0\nsamples = 2\nvalue = [0, 2]\nclass = Yes"] ;
709 -> 710 ;
711 [label="Wife_religion <= 0.5\ngini = 0.444\nsamples = 3\nvalue = [1, 2]\nclass = Yes"] ;
709 -> 711 ;
712 [label="gini = 0.0\nsamples = 2\nvalue = [0, 2]\nclass = Yes"] ;
711 -> 712 ;
713 [label="gini = 0.0\nsamples = 1\nvalue = [1, 0]\nclass = No"] ;
711 -> 713 ;
714 [label="Wife_age <= 45.0\ngini = 0.375\nsamples = 4\nvalue = [3, 1]\nclass = No"] ;
708 -> 714 ;
715 [label="Husband_Occupation <= 0.5\ngini = 0.5\nsamples = 2\nvalue = [1, 1]\nclass = No"] ;
714 -> 715 ;
716 [label="gini = 0.0\nsamples = 1\nvalue = [0, 1]\nclass = Yes"] ;
715 -> 716 ;
717 [label="gini = 0.0\nsamples = 1\nvalue = [1, 0]\nclass = No"] ;
715 -> 717 ;
718 [label="gini = 0.0\nsamples = 2\nvalue = [2, 0]\nclass = No"] ;
714 -> 718 ;
719 [label="gini = 0.0\nsamples = 3\nvalue = [0, 3]\nclass = Yes"] ;
705 -> 719 ;
720 [label="gini = 0.0\nsamples = 9\nvalue = [0, 9]\nclass = Yes"] ;
704 -> 720 ;
721 [label="gini = 0.0\nsamples = 1\nvalue = [1, 0]\nclass = No"] ;
703 -> 721 ;
722 [label="Standard_of_living_index <= 2.5\ngini = 0.254\nsamples = 47\nvalue = [40, 7]\nclass = No"] ;
568 -> 722 ;
723 [label="Standard_of_living_index <= 1.5\ngini = 0.307\nsamples = 37\nvalue = [30, 7]\nclass = No"] ;
722 -> 723 ;
724 [label="No_of_children_born <= 3.5\ngini = 0.211\nsamples = 25\nvalue = [22, 3]\nclass = No"] ;
723 -> 724 ;
725 [label="Media_exposure <= 0.5\ngini = 0.444\nsamples = 6\nvalue = [4, 2]\nclass = No"] ;
724 -> 725 ;
726 [label="Husband_education <= 0.5\ngini = 0.444\nsamples = 3\nvalue = [1, 2]\nclass = Yes"] ;
725 -> 726 ;
727 [label="gini = 0.0\nsamples = 1\nvalue = [1, 0]\nclass = No"] ;
726 -> 727 ;
728 [label="gini = 0.0\nsamples = 2\nvalue = [0, 2]\nclass = Yes"] ;
726 -> 728 ;
729 [label="gini = 0.0\nsamples = 3\nvalue = [3, 0]\nclass = No"] ;
725 -> 729 ;
730 [label="No_of_children_born <= 9.5\ngini = 0.1\nsamples = 19\nvalue = [18, 1]\nclass = No"] ;
724 -> 730 ;
731 [label="gini = 0.0\nsamples = 16\nvalue = [16, 0]\nclass = No"] ;
730 -> 731 ;
732 [label="Husband_education <= 2.0\ngini = 0.444\nsamples = 3\nvalue = [2, 1]\nclass = No"] ;
730 -> 732 ;
733 [label="gini = 0.0\nsamples = 2\nvalue = [2, 0]\nclass = No"] ;
732 -> 733 ;
734 [label="gini = 0.0\nsamples = 1\nvalue = [0, 1]\nclass = Yes"] ;
732 -> 734 ;
735 [label="Wife_age <= 39.5\ngini = 0.444\nsamples = 12\nvalue = [8, 4]\nclass = No"] ;
723 -> 735 ;
736 [label="gini = 0.0\nsamples = 1\nvalue = [0, 1]\nclass = Yes"] ;
735 -> 736 ;
737 [label="Media_exposure <= 0.5\ngini = 0.397\nsamples = 11\nvalue = [8, 3]\nclass = No"] ;
735 -> 737 ;
738 [label="No_of_children_born <= 5.0\ngini = 0.245\nsamples = 7\nvalue = [6, 1]\nclass = No"] ;
737 -> 738 ;
739 [label="Wife_Working <= 0.5\ngini = 0.5\nsamples = 2\nvalue = [1, 1]\nclass = No"] ;
738 -> 739 ;
740 [label="gini = 0.0\nsamples = 1\nvalue = [0, 1]\nclass = Yes"] ;
739 -> 740 ;
741 [label="gini = 0.0\nsamples = 1\nvalue = [1, 0]\nclass = No"] ;
739 -> 741 ;
742 [label="gini = 0.0\nsamples = 5\nvalue = [5, 0]\nclass = No"] ;
738 -> 742 ;
743 [label="No_of_children_born <= 6.0\ngini = 0.5\nsamples = 4\nvalue = [2, 2]\nclass = No"] ;
737 -> 743 ;
744 [label="gini = 0.0\nsamples = 1\nvalue = [1, 0]\nclass = No"] ;
743 -> 744 ;
745 [label="Husband_Occupation <= 1.0\ngini = 0.444\nsamples = 3\nvalue = [1, 2]\nclass = Yes"] ;
743 -> 745 ;
746 [label="gini = 0.0\nsamples = 1\nvalue = [1, 0]\nclass = No"] ;
745 -> 746 ;
747 [label="gini = 0.0\nsamples = 2\nvalue = [0, 2]\nclass = Yes"] ;
745 -> 747 ;
748 [label="gini = 0.0\nsamples = 10\nvalue = [10, 0]\nclass = No"] ;
722 -> 748 ;
}